{"learner":{"attributes":{},"feature_names":["0","1","2","3","4","5","6","7","8","9","10","11","12","13","14","15","16","17","18","19","20","21","22","23","24","25","26","27","28","29","30","31","32","33","34","35","36","37","38","39","40","41","42","43","44","45","46","47","48","49","50","51","52","53","54","55","56","57","58","59","60","61","62","63"],"feature_types":["float","float","float","float","float","float","float","float","float","float","float","float","float","float","float","float","float","float","float","float","float","float","float","float","float","float","float","float","float","float","float","float","float","float","float","float","float","float","float","float","float","float","float","float","float","float","float","float","float","float","float","float","float","float","float","float","float","float","float","float","float","float","float","float"],"gradient_booster":{"model":{"gbtree_model_param":{"num_parallel_tree":"1","num_trees":"1350"},"iteration_indptr":[0,10,20,30,40,50,60,70,80,90,100,110,120,130,140,150,160,170,180,190,200,210,220,230,240,250,260,270,280,290,300,310,320,330,340,350,360,370,380,390,400,410,420,430,440,450,460,470,480,490,500,510,520,530,540,550,560,570,580,590,600,610,620,630,640,650,660,670,680,690,700,710,720,730,740,750,760,770,780,790,800,810,820,830,840,850,860,870,880,890,900,910,920,930,940,950,960,970,980,990,1000,1010,1020,1030,1040,1050,1060,1070,1080,1090,1100,1110,1120,1130,1140,1150,1160,1170,1180,1190,1200,1210,1220,1230,1240,1250,1260,1270,1280,1290,1300,1310,1320,1330,1340,1350],"tree_info":[0,1,2,3,4,5,6,7,8,9,0,1,2,3,4,5,6,7,8,9,0,1,2,3,4,5,6,7,8,9,0,1,2,3,4,5,6,7,8,9,0,1,2,3,4,5,6,7,8,9,0,1,2,3,4,5,6,7,8,9,0,1,2,3,4,5,6,7,8,9,0,1,2,3,4,5,6,7,8,9,0,1,2,3,4,5,6,7,8,9,0,1,2,3,4,5,6,7,8,9,0,1,2,3,4,5,6,7,8,9,0,1,2,3,4,5,6,7,8,9,0,1,2,3,4,5,6,7,8,9,0,1,2,3,4,5,6,7,8,9,0,1,2,3,4,5,6,7,8,9,0,1,2,3,4,5,6,7,8,9,0,1,2,3,4,5,6,7,8,9,0,1,2,3,4,5,6,7,8,9,0,1,2,3,4,5,6,7,8,9,0,1,2,3,4,5,6,7,8,9,0,1,2,3,4,5,6,7,8,9,0,1,2,3,4,5,6,7,8,9,0,1,2,3,4,5,6,7,8,9,0,1,2,3,4,5,6,7,8,9,0,1,2,3,4,5,6,7,8,9,0,1,2,3,4,5,6,7,8,9,0,1,2,3,4,5,6,7,8,9,0,1,2,3,4,5,6,7,8,9,0,1,2,3,4,5,6,7,8,9,0,1,2,3,4,5,6,7,8,9,0,1,2,3,4,5,6,7,8,9,0,1,2,3,4,5,6,7,8,9,0,1,2,3,4,5,6,7,8,9,0,1,2,3,4,5,6,7,8,9,0,1,2,3,4,5,6,7,8,9,0,1,2,3,4,5,6,7,8,9,0,1,2,3,4,5,6,7,8,9,0,1,2,3,4,5,6,7,8,9,0,1,2,3,4,5,6,7,8,9,0,1,2,3,4,5,6,7,8,9,0,1,2,3,4,5,6,7,8,9,0,1,2,3,4,5,6,7,8,9,0,1,2,3,4,5,6,7,8,9,0,1,2,3,4,5,6,7,8,9,0,1,2,3,4,5,6,7,8,9,0,1,2,3,4,5,6,7,8,9,0,1,2,3,4,5,6,7,8,9,0,1,2,3,4,5,6,7,8,9,0,1,2,3,4,5,6,7,8,9,0,1,2,3,4,5,6,7,8,9,0,1,2,3,4,5,6,7,8,9,0,1,2,3,4,5,6,7,8,9,0,1,2,3,4,5,6,7,8,9,0,1,2,3,4,5,6,7,8,9,0,1,2,3,4,5,6,7,8,9,0,1,2,3,4,5,6,7,8,9,0,1,2,3,4,5,6,7,8,9,0,1,2,3,4,5,6,7,8,9,0,1,2,3,4,5,6,7,8,9,0,1,2,3,4,5,6,7,8,9,0,1,2,3,4,5,6,7,8,9,0,1,2,3,4,5,6,7,8,9,0,1,2,3,4,5,6,7,8,9,0,1,2,3,4,5,6,7,8,9,0,1,2,3,4,5,6,7,8,9,0,1,2,3,4,5,6,7,8,9,0,1,2,3,4,5,6,7,8,9,0,1,2,3,4,5,6,7,8,9,0,1,2,3,4,5,6,7,8,9,0,1,2,3,4,5,6,7,8,9,0,1,2,3,4,5,6,7,8,9,0,1,2,3,4,5,6,7,8,9,0,1,2,3,4,5,6,7,8,9,0,1,2,3,4,5,6,7,8,9,0,1,2,3,4,5,6,7,8,9,0,1,2,3,4,5,6,7,8,9,0,1,2,3,4,5,6,7,8,9,0,1,2,3,4,5,6,7,8,9,0,1,2,3,4,5,6,7,8,9,0,1,2,3,4,5,6,7,8,9,0,1,2,3,4,5,6,7,8,9,0,1,2,3,4,5,6,7,8,9,0,1,2,3,4,5,6,7,8,9,0,1,2,3,4,5,6,7,8,9,0,1,2,3,4,5,6,7,8,9,0,1,2,3,4,5,6,7,8,9,0,1,2,3,4,5,6,7,8,9,0,1,2,3,4,5,6,7,8,9,0,1,2,3,4,5,6,7,8,9,0,1,2,3,4,5,6,7,8,9,0,1,2,3,4,5,6,7,8,9,0,1,2,3,4,5,6,7,8,9,0,1,2,3,4,5,6,7,8,9,0,1,2,3,4,5,6,7,8,9,0,1,2,3,4,5,6,7,8,9,0,1,2,3,4,5,6,7,8,9,0,1,2,3,4,5,6,7,8,9,0,1,2,3,4,5,6,7,8,9,0,1,2,3,4,5,6,7,8,9,0,1,2,3,4,5,6,7,8,9,0,1,2,3,4,5,6,7,8,9,0,1,2,3,4,5,6,7,8,9,0,1,2,3,4,5,6,7,8,9,0,1,2,3,4,5,6,7,8,9,0,1,2,3,4,5,6,7,8,9,0,1,2,3,4,5,6,7,8,9,0,1,2,3,4,5,6,7,8,9,0,1,2,3,4,5,6,7,8,9,0,1,2,3,4,5,6,7,8,9,0,1,2,3,4,5,6,7,8,9,0,1,2,3,4,5,6,7,8,9,0,1,2,3,4,5,6,7,8,9,0,1,2,3,4,5,6,7,8,9,0,1,2,3,4,5,6,7,8,9,0,1,2,3,4,5,6,7,8,9,0,1,2,3,4,5,6,7,8,9,0,1,2,3,4,5,6,7,8,9,0,1,2,3,4,5,6,7,8,9,0,1,2,3,4,5,6,7,8,9,0,1,2,3,4,5,6,7,8,9,0,1,2,3,4,5,6,7,8,9,0,1,2,3,4,5,6,7,8,9,0,1,2,3,4,5,6,7,8,9,0,1,2,3,4,5,6,7,8,9,0,1,2,3,4,5,6,7,8,9,0,1,2,3,4,5,6,7,8,9,0,1,2,3,4,5,6,7,8,9,0,1,2,3,4,5,6,7,8,9,0,1,2,3,4,5,6,7,8,9,0,1,2,3,4,5,6,7,8,9,0,1,2,3,4,5,6,7,8,9,0,1,2,3,4,5,6,7,8,9,0,1,2,3,4,5,6,7,8,9,0,1,2,3,4,5,6,7,8,9,0,1,2,3,4,5,6,7,8,9],"trees":[{"base_weights":[3.105588E-2,2.4025974E0,-5.0494134E-1,-2.5049118E-2,3.75498E0,3.208556E-1,-2.7552018E-2,-1.546392E-1,4.418605E0,8.2214765E-2,-2.2727273E-2,-1.7857144E-2,9.615384E-3,9.615384E-3,2.3449133E-1],"categories":[],"categories_nodes":[],"categories_segments":[],"categories_sizes":[],"default_left":[0,0,0,0,0,0,0,0,0,0,0,0,0,0,0],"id":0,"left_children":[1,3,5,-1,7,9,-1,11,13,-1,-1,-1,-1,-1,-1],"loss_changes":[2.0177359E2,1.1677791E2,5.1074257E0,0E0,5.278122E1,8.423356E0,0E0,3.4128243E-1,1.8813873E1,0E0,0E0,0E0,0E0,0E0,0E0],"parents":[2147483647,0,0,1,1,2,2,4,4,5,5,7,7,8,8],"right_children":[2,4,6,-1,8,10,-1,12,14,-1,-1,-1,-1,-1,-1],"split_conditions":[1E0,1E0,3E0,-2.5049118E-2,7E0,3E0,-2.7552018E-2,4E0,7E0,8.2214765E-2,-2.2727273E-2,-1.7857144E-2,9.615384E-3,9.615384E-3,2.3449133E-1],"split_indices":[28,30,28,0,3,27,0,3,42,0,0,0,0,0,0],"split_type":[0,0,0,0,0,0,0,0,0,0,0,0,0,0,0],"sum_hessian":[1.5678E2,2.8259998E1,1.2851999E2,9.179999E0,1.908E1,6.4799995E0,1.2203999E2,2.8799999E0,1.6199999E1,1.9799999E0,4.5E0,1.8E0,1.0799999E0,1.0799999E0,1.5119999E1],"tree_param":{"num_deleted":"0","num_feature":"64","num_nodes":"15","size_leaf_vector":"1"}},{"base_weights":[5.1229303E-3,-4.5122156E-1,1.4964694E0,1.4435146E0,-5.2505153E-1,3.3275712E-1,3.2288828E0,-1.7175574E-2,1.2341773E-1,-5.416294E-1,-1.19453944E-1,-5.6710795E-2,1.4932887E-1,3.5842028E0,-1.5486727E-2,4.0983604E-3,-2.7525848E-2,-2.196653E-2,3.3653848E-2,-3.8764787E-1,6.772334E-1,4.125874E0,1.510067E-2,2.4590163E-2,-2.5761975E-2,1.6494845E0,-2.0935962E-2,7.824428E-2,2.1945012E-1,1.25E-1,-1.4423077E-2],"categories":[],"categories_nodes":[],"categories_segments":[],"categories_sizes":[],"default_left":[0,0,0,0,0,0,0,0,0,0,0,0,0,0,0,0,0,0,0,0,0,0,0,0,0,0,0,0,0,0,0],"id":1,"left_children":[1,3,5,7,9,11,13,-1,-1,15,17,19,-1,21,-1,-1,-1,-1,-1,23,25,27,-1,-1,-1,29,-1,-1,-1,-1,-1],"loss_changes":[1.0695269E2,1.7592072E1,7.3155815E1,9.602074E0,7.1904373E-1,2.4086359E1,1.9567917E1,0E0,0E0,6.64196E-1,1.7812841E0,5.4020667E0,0E0,2.2612915E1,0E0,0E0,0E0,0E0,0E0,1.9612415E0,8.085526E0,8.407593E-1,0E0,0E0,0E0,7.116374E0,0E0,0E0,0E0,0E0,0E0],"parents":[2147483647,0,0,1,1,2,2,3,3,4,4,5,5,6,6,9,9,10,10,11,11,13,13,19,19,20,20,21,21,25,25],"right_children":[2,4,6,8,10,12,14,-1,-1,16,18,20,-1,22,-1,-1,-1,-1,-1,24,26,28,-1,-1,-1,30,-1,-1,-1,-1,-1],"split_conditions":[1.4E1,2E0,1.6E1,9E0,1.3E1,3E0,2E0,-1.7175574E-2,1.2341773E-1,4E0,1.5E1,1.4E1,1.4932887E-1,3E0,-1.5486727E-2,4.0983604E-3,-2.7525848E-2,-2.196653E-2,3.3653848E-2,5E0,1E0,1.2E1,1.510067E-2,2.4590163E-2,-2.5761975E-2,1.4E1,-2.0935962E-2,7.824428E-2,2.1945012E-1,1.25E-1,-1.4423077E-2],"split_indices":[19,3,12,44,19,63,9,0,0,3,43,12,0,41,0,0,0,0,0,12,33,28,0,0,0,4,0,0,0,0,0],"split_type":[0,0,0,0,0,0,0,0,0,0,0,0,0,0,0,0,0,0,0,0,0,0,0,0,0,0,0,0,0,0,0],"sum_hessian":[1.5515999E2,1.1934E2,3.582E1,3.7799997E0,1.1556E2,2.214E1,1.3679999E1,1.6199999E0,2.1599998E0,1.107E2,4.8599997E0,2.016E1,1.9799999E0,1.2419999E1,1.26E0,1.4399999E0,1.09259995E2,3.7799997E0,1.0799999E0,1.4219999E1,5.9399996E0,1.044E1,1.9799999E0,1.4399999E0,1.278E1,2.8799999E0,3.06E0,1.6199999E0,8.82E0,1.8E0,1.0799999E0],"tree_param":{"num_deleted":"0","num_feature":"64","num_nodes":"31","size_leaf_vector":"1"}},{"base_weights":[-4.417779E-2,8.4697217E-1,-4.6348047E-1,2.5460124E0,-2.977983E-3,-9.615387E-2,-2.7447013E-2,3.9738805E0,-1.6717327E-1,-3.6332184E-1,1.8309859E0,-4.6605295E-1,1.3800905E0,4.508197E-2,2.1767242E-1,3.3653848E-2,-2.2727273E-2,3.642384E-1,-2.6613582E-2,-1.7857144E-2,1.4690723E-1,9.615384E-3,-2.607362E-2,-1.7175574E-2,1.25E-1,9.5132746E-2,-2.196653E-2],"categories":[],"categories_nodes":[],"categories_segments":[],"categories_sizes":[],"default_left":[0,0,0,0,0,0,0,0,0,0,0,0,0,0,0,0,0,0,0,0,0,0,0,0,0,0,0],"id":2,"left_children":[1,3,5,7,9,11,-1,13,15,17,19,21,23,-1,-1,-1,-1,25,-1,-1,-1,-1,-1,-1,-1,-1,-1],"loss_changes":[5.706207E1,7.059515E1,3.205042E0,6.3811684E1,2.2856834E1,1.2001273E1,0E0,8.575607E0,1.8947806E0,3.7462952E0,1.4809732E1,7.344096E-1,9.390607E0,0E0,0E0,0E0,0E0,8.302685E0,0E0,0E0,0E0,0E0,0E0,0E0,0E0,0E0,0E0],"parents":[2147483647,0,0,1,1,2,2,3,3,4,4,5,5,7,7,8,8,9,9,10,10,11,11,12,12,17,17],"right_children":[2,4,6,8,10,12,-1,14,16,18,20,22,24,-1,-1,-1,-1,26,-1,-1,-1,-1,-1,-1,-1,-1,-1],"split_conditions":[5E0,4E0,3E0,1.3E1,1.6E1,7E0,-2.7447013E-2,1E0,1.3E1,1E0,2E0,4E0,1E1,4.508197E-2,2.1767242E-1,3.3653848E-2,-2.2727273E-2,6E0,-2.6613582E-2,-1.7857144E-2,1.4690723E-1,9.615384E-3,-2.607362E-2,-1.7175574E-2,1.25E-1,9.5132746E-2,-2.196653E-2],"split_indices":[26,37,45,27,52,53,0,18,28,27,61,27,12,0,0,0,0,45,0,0,0,0,0,0,0,0,0],"split_type":[0,0,0,0,0,0,0,0,0,0,0,0,0,0,0,0,0,0,0,0,0,0,0,0,0,0,0],"sum_hessian":[1.5065999E2,4.7879997E1,1.0278E2,1.5299999E1,3.2579998E1,1.98E1,8.2979996E1,9.719999E0,5.58E0,2.79E1,4.68E0,1.638E1,3.4199998E0,1.4399999E0,8.28E0,1.0799999E0,4.5E0,5.04E0,2.2859999E1,1.8E0,2.8799999E0,1.0799999E0,1.5299999E1,1.6199999E0,1.8E0,1.26E0,3.7799997E0],"tree_param":{"num_deleted":"0","num_feature":"64","num_nodes":"27","size_leaf_vector":"1"}},{"base_weights":[-4.185197E-2,1.0163432E0,-4.0257934E-1,1.9404862E0,-3.9877304E-1,-3.816796E-2,-5.0468963E-1,4.06639E0,4.6649146E-1,-2.57079E-2,1.0309277E-1,1.2457337E0,-3.88941E-1,-5.3641737E-1,-1.7241381E-1,2.2016707E-1,5.088496E-2,1.7845659E0,-4.0000004E-1,3.3653848E-2,-1.7857144E-2,-1.3513516E-1,1.2341773E-1,1.882845E-1,-2.6195902E-2,-2.7424281E-2,-1.3513516E-1,3.5714287E-2,-2.4064174E-2,1.3916257E-1,-6.3291155E-2,-2.4663677E-2,9.615384E-3,9.615384E-3,-1.7175574E-2,5.088496E-2,-1.9886365E-2,9.615384E-3,-1.7175574E-2,-1.4423077E-2,9.615384E-3],"categories":[],"categories_nodes":[],"categories_segments":[],"categories_sizes":[],"default_left":[0,0,0,0,0,0,0,0,0,0,0,0,0,0,0,0,0,0,0,0,0,0,0,0,0,0,0,0,0,0,0,0,0,0,0,0,0,0,0,0,0],"id":3,"left_children":[1,3,5,7,9,11,13,15,17,-1,19,21,23,25,27,-1,-1,29,31,-1,-1,33,-1,35,-1,-1,37,-1,-1,-1,39,-1,-1,-1,-1,-1,-1,-1,-1,-1,-1],"loss_changes":[5.8781773E1,5.198608E1,4.250971E0,7.2870056E1,9.969027E-1,1.2283899E1,8.516884E-1,5.421524E0,1.8096592E1,0E0,1.2582134E0,1.0226875E1,1.761291E0,3.195057E-1,2.8853297E0,0E0,0E0,1.16547165E1,6.473268E-1,0E0,0E0,3.185158E-1,0E0,2.72807E0,0E0,0E0,3.185158E-1,0E0,0E0,0E0,2.3734176E-1,0E0,0E0,0E0,0E0,0E0,0E0,0E0,0E0,0E0,0E0],"parents":[2147483647,0,0,1,1,2,2,3,3,4,4,5,5,6,6,7,7,8,8,10,10,11,11,12,12,13,13,14,14,17,17,18,18,21,21,23,23,26,26,30,30],"right_children":[2,4,6,8,10,12,14,16,18,-1,20,22,24,26,28,-1,-1,30,32,-1,-1,34,-1,36,-1,-1,38,-1,-1,-1,40,-1,-1,-1,-1,-1,-1,-1,-1,-1,-1],"split_conditions":[1E0,5E0,6E0,1E0,2E0,5E0,1E0,8E0,1.1E1,-2.57079E-2,3E0,1.4E1,8E0,6E0,2E0,2.2016707E-1,5.088496E-2,1.1E1,4E0,3.3653848E-2,-1.7857144E-2,4E0,1.2341773E-1,1.2E1,-2.6195902E-2,-2.7424281E-2,1E1,3.5714287E-2,-2.4064174E-2,1.3916257E-1,1.5E1,-2.4663677E-2,9.615384E-3,9.615384E-3,-1.7175574E-2,5.088496E-2,-1.9886365E-2,9.615384E-3,-1.7175574E-2,-1.4423077E-2,9.615384E-3],"split_indices":[34,43,26,26,1,43,1,19,29,0,17,3,51,9,17,0,0,52,25,0,0,19,0,36,0,0,13,0,0,0,10,0,0,0,0,0,0,0,0,0,0],"split_type":[0,0,0,0,0,0,0,0,0,0,0,0,0,0,0,0,0,0,0,0,0,0,0,0,0,0,0,0,0,0,0,0,0,0,0,0,0,0,0,0,0],"sum_hessian":[1.5192E2,3.816E1,1.13759995E2,2.2859999E1,1.5299999E1,2.5199999E1,8.856E1,8.639999E0,1.4219999E1,1.2419999E1,2.8799999E0,4.8599997E0,2.0339998E1,8.028E1,8.28E0,7.3799996E0,1.26E0,5.22E0,9E0,1.0799999E0,1.8E0,2.6999998E0,2.1599998E0,3.7799997E0,1.656E1,7.7579994E1,2.6999998E0,1.8E0,6.4799995E0,3.06E0,2.1599998E0,7.9199996E0,1.0799999E0,1.0799999E0,1.6199999E0,1.26E0,2.52E0,1.0799999E0,1.6199999E0,1.0799999E0,1.0799999E0],"tree_param":{"num_deleted":"0","num_feature":"64","num_nodes":"41","size_leaf_vector":"1"}},{"base_weights":[2.8391147E-2,-3.043837E-1,3.495702E0,-3.983076E-1,1.088795E0,2.1735075E-1,5.188679E-1,4.3889844E-1,-4.7208607E-1,2.470817E0,-2.2556392E-2,8.1730776E-2,-1.8987343E-2,-1.8672201E-1,1.1577181E-1,-1.09489076E-1,-5.319542E-1,1.7268042E-1,-1.5486727E-2,-2.4234695E-2,3.5714287E-2,1.3054187E0,-4.590571E-1,-2.7046097E-2,-1.677853E-3,-1.677853E-3,1.298077E-1,-2.5930852E-2,9.615384E-3],"categories":[],"categories_nodes":[],"categories_segments":[],"categories_sizes":[],"default_left":[0,0,0,0,0,0,0,0,0,0,0,0,0,0,0,0,0,0,0,0,0,0,0,0,0,0,0,0,0],"id":4,"left_children":[1,3,5,7,9,-1,11,13,15,17,-1,-1,-1,19,-1,21,23,-1,-1,-1,-1,25,27,-1,-1,-1,-1,-1,-1],"loss_changes":[1.839467E2,1.9477982E1,3.312213E1,8.674324E0,2.12475E1,0E0,4.8718786E0,1.4074226E1,2.6869507E0,1.5115789E1,0E0,0E0,0E0,2.9343085E0,0E0,1.0085814E1,4.6580505E-1,0E0,0E0,0E0,0E0,7.103867E0,7.251134E-1,0E0,0E0,0E0,0E0,0E0,0E0],"parents":[2147483647,0,0,1,1,2,2,3,3,4,4,6,6,7,7,8,8,9,9,13,13,15,15,16,16,21,21,22,22],"right_children":[2,4,6,8,10,-1,12,14,16,18,-1,-1,-1,20,-1,22,24,-1,-1,-1,-1,26,28,-1,-1,-1,-1,-1,-1],"split_conditions":[9E0,9E0,2E0,5E0,2E0,2.1735075E-1,5E0,5E0,5E0,1E0,-2.2556392E-2,8.1730776E-2,-1.8987343E-2,1.5E1,1.1577181E-1,2E0,1.1E1,1.7268042E-1,-1.5486727E-2,-2.4234695E-2,3.5714287E-2,1.5E1,7E0,-2.7046097E-2,-1.677853E-3,-1.677853E-3,1.298077E-1,-2.5930852E-2,9.615384E-3],"split_indices":[33,30,2,59,2,0,12,33,12,6,0,0,0,60,0,53,25,0,0,0,0,18,30,0,0,0,0,0,0],"split_type":[0,0,0,0,0,0,0,0,0,0,0,0,0,0,0,0,0,0,0,0,0,0,0,0,0,0,0,0,0],"sum_hessian":[1.575E2,1.4454E2,1.2959999E1,1.3607999E2,8.46E0,9.719999E0,3.2399998E0,1.062E1,1.2545999E2,4.14E0,4.3199997E0,1.0799999E0,2.1599998E0,8.639999E0,1.9799999E0,1.8179998E1,1.0728E2,2.8799999E0,1.26E0,6.8399997E0,1.8E0,3.06E0,1.5119999E1,1.05299995E2,1.9799999E0,1.9799999E0,1.0799999E0,1.4039999E1,1.0799999E0],"tree_param":{"num_deleted":"0","num_feature":"64","num_nodes":"29","size_leaf_vector":"1"}},{"base_weights":[-4.786218E-2,1.1412535E0,-4.898208E-1,-3.244006E-1,3.766234E0,-5.288462E-1,-2.8134257E-1,5.9859157E-1,-2.660473E-2,2.232006E-1,-8.982038E-2,-4.0540543E-1,-2.7429074E-2,-2.6195902E-2,9.459459E-1,8.928572E-2,-2.0618558E-2,-1.5486727E-2,9.615384E-3,-2.5679762E-2,-2.0920519E-2,8.6065575E-2,-1.5486727E-2,3.3653848E-2,-2.0270271E-2],"categories":[],"categories_nodes":[],"categories_segments":[],"categories_sizes":[],"default_left":[0,0,0,0,0,0,0,0,0,0,0,0,0,0,0,0,0,0,0,0,0,0,0,0,0],"id":5,"left_children":[1,3,5,7,9,11,13,15,-1,-1,17,19,-1,-1,21,-1,-1,-1,-1,-1,23,-1,-1,-1,-1],"loss_changes":[8.291112E1,1.6573286E2,7.863598E-1,5.7551184E0,4.1837326E1,1.0690689E-2,6.5272036E0,7.5531535E0,0E0,0E0,2.667911E-1,6.97242E-1,0E0,0E0,4.1355114E0,0E0,0E0,0E0,0E0,0E0,1.5483238E0,0E0,0E0,0E0,0E0],"parents":[2147483647,0,0,1,1,2,2,3,3,4,4,5,5,6,6,7,7,10,10,11,11,14,14,20,20],"right_children":[2,4,6,8,10,12,14,16,-1,-1,18,20,-1,-1,22,-1,-1,-1,-1,-1,24,-1,-1,-1,-1],"split_conditions":[2E0,7E0,1.6E1,1E0,1.3E1,1E0,8E0,1E0,-2.660473E-2,2.232006E-1,1.2E1,1.6E1,-2.7429074E-2,-2.6195902E-2,1E0,8.928572E-2,-2.0618558E-2,-1.5486727E-2,9.615384E-3,-2.5679762E-2,3E0,8.6065575E-2,-1.5486727E-2,3.3653848E-2,-2.0270271E-2],"split_indices":[21,5,26,42,42,5,58,62,0,0,3,11,0,0,42,0,0,0,0,0,42,0,0,0,0],"split_type":[0,0,0,0,0,0,0,0,0,0,0,0,0,0,0,0,0,0,0,0,0,0,0,0,0],"sum_hessian":[1.557E2,4.176E1,1.13939995E2,2.7359999E1,1.44E1,9.467999E1,1.9259998E1,4.68E0,2.2679998E1,1.2059999E1,2.34E0,1.6019999E1,7.8659996E1,1.656E1,2.6999998E0,1.8E0,2.8799999E0,1.26E0,1.0799999E0,1.224E1,3.7799997E0,1.4399999E0,1.26E0,1.0799999E0,2.6999998E0],"tree_param":{"num_deleted":"0","num_feature":"64","num_nodes":"25","size_leaf_vector":"1"}},{"base_weights":[1.7270032E-2,1.3713268E0,-5.2392817E-1,-4.5525905E-1,3.5812132E0,-5.325657E-1,6.637168E-3,-2.66223E-2,2.4590163E-2,6.363636E-1,4.3726473E0,-2.748746E-2,-4.0048546E-1,1.4071857E0,-1.8987343E-2,2.3317634E-1,9.615384E-3,9.615384E-3,-4.5454547E-1,1.1725664E-1,-1.4423077E-2,-2.5837991E-2,9.615384E-3],"categories":[],"categories_nodes":[],"categories_segments":[],"categories_sizes":[],"default_left":[0,0,0,0,0,0,0,0,0,0,0,0,0,0,0,0,0,0,0,0,0,0,0],"id":6,"left_children":[1,3,5,7,9,11,-1,-1,-1,13,15,-1,17,19,-1,-1,-1,-1,21,-1,-1,-1,-1],"loss_changes":[1.1528647E2,1.8295209E2,7.083435E-1,2.124467E0,4.4855988E1,3.2123566E-2,0E0,0E0,0E0,4.8421955E0,1.8485779E1,0E0,6.1553764E-1,5.9885077E0,0E0,0E0,0E0,0E0,7.191272E-1,0E0,0E0,0E0,0E0],"parents":[2147483647,0,0,1,1,2,2,3,3,4,4,5,5,9,9,10,10,12,12,13,13,18,18],"right_children":[2,4,6,8,10,12,-1,-1,-1,14,16,-1,18,20,-1,-1,-1,-1,22,-1,-1,-1,-1],"split_conditions":[1E0,1E1,1.4E1,8E0,2E0,1.6E1,6.637168E-3,-2.66223E-2,2.4590163E-2,1E0,6E0,-2.748746E-2,3E0,1.4E1,-1.8987343E-2,2.3317634E-1,9.615384E-3,9.615384E-3,4E0,1.1725664E-1,-1.4423077E-2,-2.5837991E-2,9.615384E-3],"split_indices":[21,42,46,42,54,34,0,0,0,38,58,0,29,3,0,0,0,0,54,0,0,0,0],"split_type":[0,0,0,0,0,0,0,0,0,0,0,0,0,0,0,0,0,0,0,0,0,0,0],"sum_hessian":[1.5534E2,4.392E1,1.1142E2,2.448E1,1.9439999E1,1.10159996E2,1.26E0,2.3039999E1,1.4399999E0,4.5E0,1.494E1,9.467999E1,1.548E1,2.34E0,2.1599998E0,1.386E1,1.0799999E0,1.0799999E0,1.44E1,1.26E0,1.0799999E0,1.332E1,1.0799999E0],"tree_param":{"num_deleted":"0","num_feature":"64","num_nodes":"23","size_leaf_vector":"1"}},{"base_weights":[3.739382E-2,3.5406091E0,-3.489023E-1,-8.982038E-2,4.180328E0,1.0689656E0,-5.0494134E-1,9.615384E-3,-1.5486727E-2,2.2532895E-1,2.8761063E-2,-2.3690775E-1,2.326203E0,-5.278341E-1,5.088496E-2,-2.3775218E-2,3.3653848E-2,3.3082707E0,-6.3291155E-2,-1.0563382E-1,-5.4296815E-1,3.3653848E-2,1.9103774E-1,-1.4423077E-2,9.615384E-3,-2.173913E-2,3.3653848E-2,-3.1250003E-1,-2.7542735E-2,-2.2556392E-2,9.615384E-3],"categories":[],"categories_nodes":[],"categories_segments":[],"categories_sizes":[],"default_left":[0,0,0,0,0,0,0,0,0,0,0,0,0,0,0,0,0,0,0,0,0,0,0,0,0,0,0,0,0,0,0],"id":7,"left_children":[1,3,5,7,9,11,13,-1,-1,-1,-1,15,17,19,-1,-1,-1,21,23,25,27,-1,-1,-1,-1,-1,-1,29,-1,-1,-1],"loss_changes":[2.147556E2,3.697734E1,3.2181908E1,2.667911E-1,1.319191E1,2.4357098E1,5.051914E0,0E0,0E0,0E0,0E0,2.0613472E0,1.7762283E1,7.621727E-1,0E0,0E0,0E0,4.6129684E0,2.3734176E-1,1.7484927E0,5.247879E-2,0E0,0E0,0E0,0E0,0E0,0E0,5.3462994E-1,0E0,0E0,0E0],"parents":[2147483647,0,0,1,1,2,2,3,3,4,4,5,5,6,6,11,11,12,12,13,13,17,17,18,18,19,19,20,20,27,27],"right_children":[2,4,6,8,10,12,14,-1,-1,-1,-1,16,18,20,-1,-1,-1,22,24,26,28,-1,-1,-1,-1,-1,-1,30,-1,-1,-1],"split_conditions":[3E0,1E0,8E0,2E0,1.3E1,1.5E1,1E0,9.615384E-3,-1.5486727E-2,2.2532895E-1,2.8761063E-2,6E0,1.3E1,9E0,5.088496E-2,-2.3775218E-2,3.3653848E-2,2E0,9E0,1E0,1E1,3.3653848E-2,1.9103774E-1,-1.4423077E-2,9.615384E-3,-2.173913E-2,3.3653848E-2,1.3E1,-2.7542735E-2,-2.2556392E-2,9.615384E-3],"split_indices":[60,29,60,1,26,36,7,0,0,0,0,22,26,60,0,0,0,38,4,30,60,0,0,0,0,0,0,5,0,0,0],"split_type":[0,0,0,0,0,0,0,0,0,0,0,0,0,0,0,0,0,0,0,0,0,0,0,0,0,0,0,0,0,0,0],"sum_hessian":[1.5678E2,1.4759999E1,1.4201999E2,2.34E0,1.2419999E1,1.3499999E1,1.2851999E2,1.0799999E0,1.26E0,1.116E1,1.26E0,7.0199995E0,6.4799995E0,1.27259995E2,1.26E0,5.9399996E0,1.0799999E0,4.3199997E0,2.1599998E0,4.68E0,1.22579994E2,1.0799999E0,3.2399998E0,1.0799999E0,1.0799999E0,3.6E0,1.0799999E0,5.3999996E0,1.1717999E2,4.3199997E0,1.0799999E0],"tree_param":{"num_deleted":"0","num_feature":"64","num_nodes":"31","size_leaf_vector":"1"}},{"base_weights":[1.5475864E-2,-4.8376933E-1,3.573742E-1,1.9083964E-3,-4.9805954E-1,-3.9827257E-1,9.568733E-1,-4.0540543E-1,-2.706844E-2,-2.684564E-2,-4.6583872E-2,-9.222135E-2,1.8571429E0,4.7169797E-2,-4.7945207E-1,-2.3972604E-2,4.4072947E-1,-2.6035134E-2,5.9999996E-1,4.5454544E-1,2.665148E0,-1.8987343E-2,3.3653848E-2,-2.6329512E-2,6.637168E-3,-2.1739133E-1,6.5436244E-2,-2.3437502E-2,1.9565217E0,1.3023953E-1,-3.8461542E-1,3.7091222E0,5.331412E-1,-1.9886365E-2,9.615384E-3,1.3023953E-1,6.637168E-3,-2.4314215E-2,9.615384E-3,8.860759E-1,2.1300212E-1,1.06557384E-1,-2.7272728E-1,-1.4423077E-2,8.1730776E-2,-2.1493215E-2,9.615384E-3],"categories":[],"categories_nodes":[],"categories_segments":[],"categories_sizes":[],"default_left":[0,0,0,0,0,0,0,0,0,0,0,0,0,0,0,0,0,0,0,0,0,0,0,0,0,0,0,0,0,0,0,0,0,0,0,0,0,0,0,0,0,0,0,0,0,0,0],"id":8,"left_children":[1,3,5,-1,7,9,11,13,-1,-1,15,17,19,21,23,-1,25,-1,27,29,31,-1,-1,-1,-1,33,-1,-1,35,-1,37,39,41,-1,-1,-1,-1,-1,-1,43,-1,-1,45,-1,-1,-1,-1],"loss_changes":[2.6643663E1,4.923315E-1,4.233884E1,0E0,2.8676033E-2,2.0072284E0,4.9226936E1,8.161719E-1,0E0,0E0,2.9282475E0,7.709723E0,3.0521149E1,1.38857E0,6.597543E-1,0E0,4.0433025E0,0E0,1.5414945E1,2.1644194E1,3.710685E1,0E0,0E0,0E0,0E0,4.1634992E-1,0E0,0E0,5.092806E0,0E0,6.2727773E-1,1.4297562E1,9.518435E0,0E0,0E0,0E0,0E0,0E0,0E0,3.2497566E0,0E0,0E0,4.8457423E-1,0E0,0E0,0E0,0E0],"parents":[2147483647,0,0,1,1,2,2,4,4,5,5,6,6,7,7,10,10,11,11,12,12,13,13,14,14,16,16,18,18,19,19,20,20,25,25,28,28,30,30,31,31,32,32,39,39,42,42],"right_children":[2,4,6,-1,8,10,12,14,-1,-1,16,18,20,22,24,-1,26,-1,28,30,32,-1,-1,-1,-1,34,-1,-1,36,-1,38,40,42,-1,-1,-1,-1,-1,-1,44,-1,-1,46,-1,-1,-1,-1],"split_conditions":[8E0,5E0,6E0,1.9083964E-3,3E0,1.4E1,7E0,6E0,-2.706844E-2,-2.684564E-2,5E0,1E1,1E1,7E0,8E0,-2.3972604E-2,9E0,-2.6035134E-2,4E0,2E0,1.5E1,-1.8987343E-2,3.3653848E-2,-2.6329512E-2,6.637168E-3,6E0,6.5436244E-2,-2.3437502E-2,1.1E1,1.3023953E-1,1.6E1,5E0,1.4E1,-1.9886365E-2,9.615384E-3,1.3023953E-1,6.637168E-3,-2.4314215E-2,9.615384E-3,1.2E1,2.1300212E-1,1.06557384E-1,2E0,-1.4423077E-2,8.1730776E-2,-2.1493215E-2,9.615384E-3],"split_indices":[27,11,21,0,58,20,50,37,0,0,34,51,36,5,17,0,53,0,61,29,12,0,0,0,0,13,0,0,20,0,34,18,20,0,0,0,0,0,0,11,0,0,9,0,0,0,0],"split_type":[0,0,0,0,0,0,0,0,0,0,0,0,0,0,0,0,0,0,0,0,0,0,0,0,0,0,0,0,0,0,0,0,0,0,0,0,0,0,0,0,0,0,0,0,0,0,0],"sum_hessian":[1.5407999E2,6.246E1,9.1619995E1,1.6199999E0,6.0839996E1,4.0679996E1,5.094E1,2.2679998E1,3.816E1,2.88E1,1.1879999E1,2.3939999E1,2.6999998E1,3.2399998E0,1.9439999E1,6.2999997E0,5.58E0,1.494E1,9E0,1.044E1,1.656E1,2.1599998E0,1.0799999E0,1.8179998E1,1.26E0,3.6E0,1.9799999E0,5.3999996E0,3.6E0,2.34E0,8.099999E0,1.062E1,5.9399996E0,2.52E0,1.0799999E0,2.34E0,1.26E0,7.0199995E0,1.0799999E0,2.1599998E0,8.46E0,1.4399999E0,4.5E0,1.0799999E0,1.0799999E0,3.4199998E0,1.0799999E0],"tree_param":{"num_deleted":"0","num_feature":"64","num_nodes":"47","size_leaf_vector":"1"}},{"base_weights":[3.965672E-2,-3.5439798E-1,1.26193E0,-4.3057352E-1,5.3941905E-1,2.8746016E0,-3.266332E-1,2.662722E-1,-4.722493E-1,1.6527196E0,-2.3037544E-2,3.404908E0,-1.9886365E-2,3.0075186E-1,-2.5994867E-2,8.1730776E-2,-2.8169015E-1,-2.7364666E-2,-3.2089964E-1,-6.3291155E-2,1.5458016E-1,-1.5486727E-2,3.7367022E0,-1.9461079E-2,4.865772E-2,9.615384E-3,-2.173913E-2,-3.977273E-1,5.088496E-2,-1.4423077E-2,9.615384E-3,9.615384E-3,3.9971347E0,2.5316453E-1,-4.4794193E-1,2.1758509E-1,4.0076338E-2,-1.4423077E-2,3.3653848E-2,-5.0488603E-1,2.0958082E-1,-2.6687598E-2,-3.0546626E-1,3.3653848E-2,-1.5486727E-2,-2.2373542E-2,9.615384E-3],"categories":[],"categories_nodes":[],"categories_segments":[],"categories_sizes":[],"default_left":[0,0,0,0,0,0,0,0,0,0,0,0,0,0,0,0,0,0,0,0,0,0,0,0,0,0,0,0,0,0,0,0,0,0,0,0,0,0,0,0,0,0,0,0,0,0,0],"id":9,"left_children":[1,3,5,7,9,11,13,15,17,19,-1,21,-1,23,-1,-1,25,-1,27,29,-1,-1,31,-1,-1,-1,-1,33,-1,-1,-1,-1,35,37,39,-1,-1,-1,-1,41,43,-1,45,-1,-1,-1,-1],"loss_changes":[7.453348E1,8.205246E0,9.757118E1,3.2755985E0,1.1495533E1,3.4013275E1,2.5692556E0,5.529106E0,9.9082756E-1,1.1998157E1,0E0,2.12471E1,0E0,2.8469326E0,0E0,0E0,4.9578404E-1,0E0,4.1543646E0,2.3734176E-1,0E0,0E0,1.3114365E1,0E0,0E0,0E0,0E0,1.2638898E0,0E0,0E0,0E0,0E0,1.2329498E1,9.1285294E-1,1.3428993E0,0E0,0E0,0E0,0E0,1.3679028E-2,1.0124152E0,0E0,5.257202E-1,0E0,0E0,0E0,0E0],"parents":[2147483647,0,0,1,1,2,2,3,3,4,4,5,5,6,6,7,7,8,8,9,9,11,11,13,13,16,16,18,18,19,19,22,22,27,27,32,32,33,33,34,34,39,39,40,40,42,42],"right_children":[2,4,6,8,10,12,14,16,18,20,-1,22,-1,24,-1,-1,26,-1,28,30,-1,-1,32,-1,-1,-1,-1,34,-1,-1,-1,-1,36,38,40,-1,-1,-1,-1,42,44,-1,46,-1,-1,-1,-1],"split_conditions":[1.4E1,1.6E1,4E0,1E0,6E0,4E0,1E0,6E0,1.2E1,1E0,-2.3037544E-2,7E0,-1.9886365E-2,2E0,-2.5994867E-2,8.1730776E-2,6E0,-2.7364666E-2,4E0,1.4E1,1.5458016E-1,-1.5486727E-2,9E0,-1.9461079E-2,4.865772E-2,9.615384E-3,-2.173913E-2,5E0,5.088496E-2,-1.4423077E-2,9.615384E-3,9.615384E-3,1.6E1,5E0,1.4E1,2.1758509E-1,4.0076338E-2,-1.4423077E-2,3.3653848E-2,1.5E1,1.1E1,-2.6687598E-2,1.6E1,3.3653848E-2,-1.5486727E-2,-2.2373542E-2,9.615384E-3],"split_indices":[29,21,43,51,42,33,42,45,20,30,0,28,0,25,0,0,12,0,30,3,0,0,21,0,0,0,0,60,0,0,0,0,20,19,54,0,0,0,0,45,4,0,4,0,0,0,0],"split_type":[0,0,0,0,0,0,0,0,0,0,0,0,0,0,0,0,0,0,0,0,0,0,0,0,0,0,0,0,0,0,0,0,0,0,0,0,0,0,0,0,0,0,0,0,0,0,0],"sum_hessian":[1.5281999E2,1.161E2,3.6719997E1,1.0746E2,8.639999E0,1.782E1,1.89E1,5.7599998E0,1.017E2,3.7799997E0,4.8599997E0,1.5299999E1,2.52E0,4.3199997E0,1.4579999E1,1.0799999E0,4.68E0,6.624E1,3.546E1,2.1599998E0,1.6199999E0,1.26E0,1.4039999E1,2.34E0,1.9799999E0,1.0799999E0,3.6E0,3.4199997E1,1.26E0,1.0799999E0,1.0799999E0,1.0799999E0,1.2959999E1,2.1599998E0,3.2039997E1,1.1339999E1,1.6199999E0,1.0799999E0,1.0799999E0,2.9699999E1,2.34E0,2.448E1,5.22E0,1.0799999E0,1.26E0,4.14E0,1.0799999E0],"tree_param":{"num_deleted":"0","num_feature":"64","num_nodes":"47","size_leaf_vector":"1"}},{"base_weights":[-4.192838E-2,1.7842977E0,-5.0932735E-1,-4.4972366E-1,3.53118E0,-7.591717E-2,-5.4053086E-1,9.371337E-3,-2.5701404E-2,1.8717052E-1,8.876783E-3,-2.4417466E-2,7.697649E-2,-3.317401E-1,-2.7446045E-2,-2.303447E-2,1.0072377E-2],"categories":[],"categories_nodes":[],"categories_segments":[],"categories_sizes":[],"default_left":[0,0,0,0,0,0,0,0,0,0,0,0,0,0,0,0,0],"id":10,"left_children":[1,3,5,7,9,11,13,-1,-1,-1,-1,-1,-1,15,-1,-1,-1],"loss_changes":[1.3299904E2,1.2552254E2,1.6358185E0,7.036457E-1,1.21002655E1,7.075137E0,2.0233154E-2,0E0,0E0,0E0,0E0,0E0,0E0,5.7335883E-1,0E0,0E0,0E0],"parents":[2147483647,0,0,1,1,2,2,3,3,4,4,5,5,6,6,13,13],"right_children":[2,4,6,8,10,12,14,-1,-1,-1,-1,-1,-1,16,-1,-1,-1],"split_conditions":[1E0,4E0,3E0,1E1,8E0,1E1,5E0,9.371337E-3,-2.5701404E-2,1.8717052E-1,8.876783E-3,-2.4417466E-2,7.697649E-2,8E0,-2.7446045E-2,-2.303447E-2,1.0072377E-2],"split_indices":[28,21,28,34,44,21,28,0,0,0,0,0,0,33,0,0,0],"split_type":[0,0,0,0,0,0,0,0,0,0,0,0,0,0,0,0,0],"sum_hessian":[1.537492E2,3.075713E1,1.2299207E2,1.3822551E1,1.693458E1,8.490721E0,1.1450136E2,1.0916294E0,1.2730922E1,1.5817379E1,1.1172009E0,7.3196707E0,1.1710502E0,5.989453E0,1.085119E2,4.932515E0,1.0569377E0],"tree_param":{"num_deleted":"0","num_feature":"64","num_nodes":"17","size_leaf_vector":"1"}},{"base_weights":[3.5642125E-2,-3.2104918E-1,1.5725554E0,-4.7372523E-1,4.5621812E-1,3.1433718E0,-2.4171074E-1,9.590017E-2,-5.1816344E-1,1.7440436E0,-3.6949557E-1,-1.4269151E-2,3.4097178E0,-2.553232E-2,5.160697E-2,-2.3886988E-2,9.198342E-2,4.374995E-2,-5.3782356E-1,2.6184216E0,-1.945912E-2,3.2562647E-2,-2.5534933E-2,1.838728E-1,1.2270881E0,3.3491977E-2,-1.9054083E-2,-2.7411014E-2,4.604922E-3,1.688315E-1,4.092993E-3,1.0870611E-1,-1.4416195E-2],"categories":[],"categories_nodes":[],"categories_segments":[],"categories_sizes":[],"default_left":[0,0,0,0,0,0,0,0,0,0,0,0,0,0,0,0,0,0,0,0,0,0,0,0,0,0,0,0,0,0,0,0,0],"id":11,"left_children":[1,3,5,7,9,11,13,15,17,19,21,-1,23,-1,-1,-1,-1,25,27,29,-1,-1,-1,-1,31,-1,-1,-1,-1,-1,-1,-1,-1],"loss_changes":[8.537288E1,1.5225559E1,8.434883E1,2.7380867E0,2.3267378E1,1.5394424E1,5.50797E0,9.4110565E0,1.1136341E0,1.684822E1,2.3199415E0,0E0,4.09552E0,0E0,0E0,0E0,0E0,1.3884879E0,6.753769E-1,1.1548828E1,0E0,0E0,0E0,0E0,5.0905786E0,0E0,0E0,0E0,0E0,0E0,0E0,0E0,0E0],"parents":[2147483647,0,0,1,1,2,2,3,3,4,4,5,5,6,6,7,7,8,8,9,9,10,10,12,12,17,17,18,18,19,19,24,24],"right_children":[2,4,6,8,10,12,14,16,18,20,22,-1,24,-1,-1,-1,-1,26,28,30,-1,-1,-1,-1,32,-1,-1,-1,-1,-1,-1,-1,-1],"split_conditions":[1.6E1,1.6E1,9E0,1E0,3E0,7E0,1.6E1,1.6E1,1E0,5E0,3E0,-1.4269151E-2,3E0,-2.553232E-2,5.160697E-2,-2.3886988E-2,9.198342E-2,1.3E1,1.1E1,1.2E1,-1.945912E-2,3.2562647E-2,-2.5534933E-2,1.838728E-1,4E0,3.3491977E-2,-1.9054083E-2,-2.7411014E-2,4.604922E-3,1.688315E-1,4.092993E-3,1.0870611E-1,-1.4416195E-2],"split_indices":[20,27,10,51,37,27,44,13,10,13,26,0,46,0,0,0,0,42,25,2,0,0,0,0,34,0,0,0,0,0,0,0,0],"split_type":[0,0,0,0,0,0,0,0,0,0,0,0,0,0,0,0,0,0,0,0,0,0,0,0,0,0,0,0,0,0,0,0,0],"sum_hessian":[1.5381108E2,1.25480354E2,2.8330736E1,1.0520567E2,2.0274677E1,1.4791484E1,1.3539253E1,7.5296555E0,9.767602E1,7.486376E0,1.2788301E1,1.0610306E0,1.37304535E1,1.1673806E1,1.8654463E0,6.212114E0,1.317542E0,3.2605202E0,9.44155E1,5.1485953E0,2.3377802E0,1.1151052E0,1.1673196E1,1.162016E1,2.110293E0,1.0849189E0,2.1756012E0,9.3010086E1,1.4054115E0,3.7088056E0,1.4397898E0,1.0311915E0,1.0791013E0],"tree_param":{"num_deleted":"0","num_feature":"64","num_nodes":"33","size_leaf_vector":"1"}},{"base_weights":[-6.86541E-3,-3.9387003E-1,1.2016389E0,-5.267823E-1,3.6054716E-2,2.5465658E0,-1.8037388E-1,-2.7381102E-2,-2.9574904E-1,1.9128805E0,-3.739044E-1,3.5626462E0,1.0939039E-1,-4.7122374E-1,1.0491716E-1,3.1888705E-2,-2.452145E-2,-2.8319305E-4,1.4360042E-1,2.1932888E-1,-2.635927E-2,3.385681E-2,1.8753329E-1,8.165424E-2,-2.292195E-2,-2.6119594E-2,6.3514984E-3,-2.1996854E-2,8.5132174E-2],"categories":[],"categories_nodes":[],"categories_segments":[],"categories_sizes":[],"default_left":[0,0,0,0,0,0,0,0,0,0,0,0,0,0,0,0,0,0,0,0,0,0,0,0,0,0,0,0,0],"id":12,"left_children":[1,3,5,7,9,11,13,-1,15,17,19,21,23,25,-1,-1,-1,-1,-1,27,-1,-1,-1,-1,-1,-1,-1,-1,-1],"loss_changes":[7.509707E1,6.9679146E0,7.285322E1,2.855816E-1,2.3531017E1,4.8655365E1,1.433904E1,0E0,2.10566E0,1.0099293E1,2.4047003E0,5.0264893E0,6.683192E0,6.381779E-1,0E0,0E0,0E0,0E0,0E0,6.4942813E0,0E0,0E0,0E0,0E0,0E0,0E0,0E0,0E0,0E0],"parents":[2147483647,0,0,1,1,2,2,3,3,4,4,5,5,6,6,8,8,9,9,10,10,11,11,12,12,13,13,19,19],"right_children":[2,4,6,8,10,12,14,-1,16,18,20,22,24,26,-1,-1,-1,-1,-1,28,-1,-1,-1,-1,-1,-1,-1,-1,-1],"split_conditions":[3E0,1.5E1,2E0,1.6E1,1E0,1.3E1,1.4E1,-2.7381102E-2,1E0,6E0,3E0,3E0,8E0,1.5E1,1.0491716E-1,3.1888705E-2,-2.452145E-2,-2.8319305E-4,1.4360042E-1,4E0,-2.635927E-2,3.385681E-2,1.8753329E-1,8.165424E-2,-2.292195E-2,-2.6119594E-2,6.3514984E-3,-2.1996854E-2,8.5132174E-2],"split_indices":[62,51,46,50,34,27,52,0,26,50,26,52,36,50,0,0,0,0,0,53,0,0,0,0,0,0,0,0,0],"split_type":[0,0,0,0,0,0,0,0,0,0,0,0,0,0,0,0,0,0,0,0,0,0,0,0,0,0,0,0,0],"sum_hessian":[1.5855591E2,1.20607376E2,3.794854E1,9.195422E1,2.8653152E1,1.8805264E1,1.9143278E1,8.3089066E1,8.865161E0,4.4795203E0,2.4173632E1,1.2946116E1,5.859146E0,1.7679869E1,1.4634087E0,1.1370072E0,7.728154E0,1.8243551E0,2.6551652E0,4.875071E0,1.9298561E1,1.0734495E0,1.1872667E1,1.0813837E0,4.7777624E0,1.6403683E1,1.2761866E0,3.8619978E0,1.0130731E0],"tree_param":{"num_deleted":"0","num_feature":"64","num_nodes":"29","size_leaf_vector":"1"}},{"base_weights":[-2.9131424E-2,1.1511446E0,-3.8308412E-1,3.2643738E0,-3.4721908E-1,1.9936976E-1,-4.8092476E-1,3.5810761E0,4.545783E-3,3.5687202E-1,-4.728939E-1,1.0927464E0,-2.7159294E-1,-5.1586336E-1,-1.4930688E-1,1.8641941E-1,5.4074068E-2,-1.7815417E-2,5.665679E-2,3.954175E-3,-2.6141549E-2,1.24811016E-1,3.86454E-4,5.613558E-1,-2.5046537E-2,-2.680686E-2,-2.1618809E-1,-2.4729012E-2,4.7575023E-2,-1.9843176E-2,3.331607E-2,5.707986E-2,-1.4484897E-2,3.325614E-2,-2.341332E-2],"categories":[],"categories_nodes":[],"categories_segments":[],"categories_sizes":[],"default_left":[0,0,0,0,0,0,0,0,0,0,0,0,0,0,0,0,0,0,0,0,0,0,0,0,0,0,0,0,0,0,0,0,0,0,0],"id":13,"left_children":[1,3,5,7,9,11,13,15,-1,17,19,21,23,25,27,-1,-1,-1,-1,-1,-1,-1,29,31,-1,-1,33,-1,-1,-1,-1,-1,-1,-1,-1],"loss_changes":[6.513637E1,1.1505032E2,6.927843E0,1.4772293E1,2.1114686E0,7.8487334E0,1.1156216E0,9.8773193E-1,0E0,2.5601635E0,5.6671095E-1,9.803101E0,2.679344E0,4.4740295E-1,4.7346077E0,0E0,0E0,0E0,0E0,0E0,0E0,0E0,1.4803283E0,1.9019663E0,0E0,0E0,1.9889338E0,0E0,0E0,0E0,0E0,0E0,0E0,0E0,0E0],"parents":[2147483647,0,0,1,1,2,2,3,3,4,4,5,5,6,6,7,7,9,9,10,10,11,11,12,12,13,13,14,14,22,22,23,23,26,26],"right_children":[2,4,6,8,10,12,14,16,-1,18,20,22,24,26,28,-1,-1,-1,-1,-1,-1,-1,30,32,-1,-1,34,-1,-1,-1,-1,-1,-1,-1,-1],"split_conditions":[2E0,3E0,6E0,1.1E1,7E0,2E0,1E0,1.5E1,4.545783E-3,7E0,7E0,9E0,1.2E1,1.4E1,6E0,1.8641941E-1,5.4074068E-2,-1.7815417E-2,5.665679E-2,3.954175E-3,-2.6141549E-2,1.24811016E-1,1.4E1,8E0,-2.5046537E-2,-2.680686E-2,8E0,-2.4729012E-2,4.7575023E-2,-1.9843176E-2,3.331607E-2,5.707986E-2,-1.4484897E-2,3.325614E-2,-2.341332E-2],"split_indices":[26,43,26,62,43,43,1,11,0,20,51,21,36,54,54,0,0,0,0,0,0,0,11,18,0,0,26,0,0,0,0,0,0,0,0],"split_type":[0,0,0,0,0,0,0,0,0,0,0,0,0,0,0,0,0,0,0,0,0,0,0,0,0,0,0,0,0,0,0,0,0,0,0],"sum_hessian":[1.5386188E2,3.4976944E1,1.18884926E2,1.4022116E1,2.0954828E1,1.694891E1,1.0193602E2,1.2632937E1,1.389178E0,2.89515E0,1.8059679E1,5.3949337E0,1.1553976E1,9.171727E1,1.0218745E1,1.1465622E1,1.1673156E0,1.7908397E0,1.1043103E0,1.449875E0,1.6609804E1,1.7987373E0,3.5961964E0,2.1818454E0,9.37213E0,8.516648E1,6.550793E0,8.198088E0,2.0206573E0,2.5055888E0,1.0906078E0,1.0943407E0,1.0875049E0,1.0925356E0,5.458257E0],"tree_param":{"num_deleted":"0","num_feature":"64","num_nodes":"35","size_leaf_vector":"1"}},{"base_weights":[1.4562043E-3,-2.6836035E-1,2.9626145E0,5.5310804E-1,-4.953721E-1,3.3537943E0,-1.571264E-2,-2.89097E-1,2.0712578E0,-5.2982724E-1,7.391849E-2,1.8044977E-1,3.0353507E-2,3.93281E-1,-2.599661E-2,3.1534252E0,-2.1323543E-2,-3.1630465E-1,-2.7412781E-2,7.076544E-2,-2.3034254E-2,6.488893E-2,-2.0562345E-2,1.7661592E-1,4.411693E-2,-2.4819931E-2,3.275732E-2],"categories":[],"categories_nodes":[],"categories_segments":[],"categories_sizes":[],"default_left":[0,0,0,0,0,0,0,0,0,0,0,0,0,0,0,0,0,0,0,0,0,0,0,0,0,0,0],"id":14,"left_children":[1,3,5,7,9,11,-1,13,15,17,19,-1,-1,21,-1,23,-1,25,-1,-1,-1,-1,-1,-1,-1,-1,-1],"loss_changes":[1.2349055E2,2.6691143E1,1.759916E1,4.041925E1,2.2265472E0,5.951874E0,0E0,3.4979844E0,3.1712719E1,2.4082184E-1,5.8450956E0,0E0,0E0,4.7940187E0,0E0,3.7310867E0,0E0,2.2020435E0,0E0,0E0,0E0,0E0,0E0,0E0,0E0,0E0,0E0],"parents":[2147483647,0,0,1,1,2,2,3,3,4,4,5,5,7,7,8,8,9,9,10,10,13,13,15,15,17,17],"right_children":[2,4,6,8,10,12,-1,14,16,18,20,-1,-1,22,-1,24,-1,26,-1,-1,-1,-1,-1,-1,-1,-1,-1],"split_conditions":[9E0,1E0,1.3E1,4E0,9E0,1.3E1,-1.571264E-2,1E0,1E1,3E0,3E0,1.8044977E-1,3.0353507E-2,9E0,-2.599661E-2,1E1,-2.1323543E-2,7E0,-2.7412781E-2,7.076544E-2,-2.3034254E-2,6.488893E-2,-2.0562345E-2,1.7661592E-1,4.411693E-2,-2.4819931E-2,3.275732E-2],"split_indices":[33,58,10,33,30,50,0,61,61,12,2,0,0,5,0,21,0,17,0,0,0,0,0,0,0,0,0],"split_type":[0,0,0,0,0,0,0,0,0,0,0,0,0,0,0,0,0,0,0,0,0,0,0,0,0,0,0],"sum_hessian":[1.5256717E2,1.4065982E2,1.1907351E1,3.0143951E1,1.1051587E2,1.0616516E1,1.2908342E0,1.9908909E1,1.0235044E1,1.0427421E2,6.241664E0,9.426742E0,1.1897749E0,4.8545403E0,1.5054368E1,6.95793E0,3.277114E0,9.727657E0,9.4546555E1,1.3092314E0,4.932432E0,1.9966717E0,2.857869E0,5.487148E0,1.4707822E0,8.618852E0,1.108806E0],"tree_param":{"num_deleted":"0","num_feature":"64","num_nodes":"27","size_leaf_vector":"1"}},{"base_weights":[-5.9165772E-2,9.6861964E-1,-4.3350357E-1,-2.1156347E-1,3.2218661E0,-4.8267454E-1,3.0435708E-1,1.4632268E0,-4.5256594E-1,-1.4567904E-2,3.5397022E0,-2.6705265E-2,-3.2703108E-1,-2.289009E-2,8.63458E-2,-1.4685608E-2,1.1602386E-1,-2.6505962E-2,1.4354703E-2,1.8544403E-1,5.2105676E-2,-2.6526153E-2,4.874774E-1,1.3616885E0,-2.057904E-2,9.187112E-2,9.280554E-3],"categories":[],"categories_nodes":[],"categories_segments":[],"categories_sizes":[],"default_left":[0,0,0,0,0,0,0,0,0,0,0,0,0,0,0,0,0,0,0,0,0,0,0,0,0,0,0],"id":15,"left_children":[1,3,5,7,9,11,13,15,17,-1,19,-1,21,-1,-1,-1,-1,-1,-1,-1,-1,-1,23,25,-1,-1,-1],"loss_changes":[5.896061E1,1.095296E2,4.2185764E0,1.1883346E1,1.6810715E1,6.7064667E-1,9.057419E0,6.304699E0,1.5901237E0,0E0,1.6426849E0,0E0,5.0332823E0,0E0,0E0,0E0,0E0,0E0,0E0,0E0,0E0,0E0,5.4959283E0,1.5701222E0,0E0,0E0,0E0],"parents":[2147483647,0,0,1,1,2,2,3,3,4,4,5,5,6,6,7,7,8,8,10,10,12,12,22,22,23,23],"right_children":[2,4,6,8,10,12,14,16,18,-1,20,-1,22,-1,-1,-1,-1,-1,-1,-1,-1,-1,24,26,-1,-1,-1],"split_conditions":[1E0,3E0,1.1E1,2E0,1E1,9E0,7E0,1.1E1,2E0,-1.4567904E-2,5E0,-2.6705265E-2,1.1E1,-2.289009E-2,8.63458E-2,-1.4685608E-2,1.1602386E-1,-2.6505962E-2,1.4354703E-2,1.8544403E-1,5.2105676E-2,-2.6526153E-2,1.1E1,9E0,-2.057904E-2,9.187112E-2,9.280554E-3],"split_indices":[21,13,6,43,18,58,58,26,13,0,42,0,26,0,0,0,0,0,0,0,0,0,21,50,0,0,0],"split_type":[0,0,0,0,0,0,0,0,0,0,0,0,0,0,0,0,0,0,0,0,0,0,0,0,0,0,0],"sum_hessian":[1.5115697E2,3.9931927E1,1.1122504E2,2.6800655E1,1.3131273E1,1.0460033E2,6.6247125E0,2.73349E0,2.4067165E1,1.09632E0,1.2034953E1,7.6793205E1,2.7807123E1,4.755214E0,1.8694983E0,1.1119409E0,1.6215491E0,2.2039608E1,2.0275574E0,1.0817245E1,1.2177085E0,2.2527615E1,5.2795076E0,2.4158509E0,2.8636565E0,1.3196924E0,1.0961585E0],"tree_param":{"num_deleted":"0","num_feature":"64","num_nodes":"27","size_leaf_vector":"1"}},{"base_weights":[-1.0550714E-2,8.060155E-1,-4.5027632E-1,-1.971535E-1,2.1575396E0,-4.785586E-1,3.8822785E-2,-2.6243864E-2,2.5149623E-1,-2.4640424E-2,1.7952628E-1,-5.350194E-1,-2.143387E-1,9.895845E-1,-2.4154639E-2,-1.8236738E-1,-2.7350286E-2,6.074009E-1,-2.5815919E-2,1.7493733E0,-1.9692278E-2,9.9631855E-3,-1.881897E-2,-2.0798808E-2,9.701905E-2,-1.5504359E-2,1.2640083E-1],"categories":[],"categories_nodes":[],"categories_segments":[],"categories_sizes":[],"default_left":[0,0,0,0,0,0,0,0,0,0,0,0,0,0,0,0,0,0,0,0,0,0,0,0,0,0,0],"id":16,"left_children":[1,3,5,7,9,11,-1,-1,13,-1,-1,15,17,19,-1,21,-1,23,-1,25,-1,-1,-1,-1,-1,-1,-1],"loss_changes":[5.6020363E1,7.447087E1,3.8893833E0,4.8757153E0,9.045348E1,1.3730583E0,0E0,0E0,8.228637E0,0E0,0E0,2.4474144E-1,5.084723E0,8.528728E0,0E0,3.8442874E-1,0E0,8.482277E0,0E0,8.79889E0,0E0,0E0,0E0,0E0,0E0,0E0,0E0],"parents":[2147483647,0,0,1,1,2,2,3,3,4,4,5,5,8,8,11,11,12,12,13,13,15,15,17,17,19,19],"right_children":[2,4,6,8,10,12,-1,-1,14,-1,-1,16,18,20,-1,22,-1,24,-1,26,-1,-1,-1,-1,-1,-1,-1],"split_conditions":[3E0,6E0,1.4E1,8E0,2E0,1.6E1,3.8822785E-2,-2.6243864E-2,1E0,-2.4640424E-2,1.7952628E-1,3E0,9E0,4E0,-2.4154639E-2,8E0,-2.7350286E-2,1.3E1,-2.5815919E-2,1.4E1,-1.9692278E-2,9.9631855E-3,-1.881897E-2,-2.0798808E-2,9.701905E-2,-1.5504359E-2,1.2640083E-1],"split_indices":[20,46,46,50,43,19,0,0,22,0,0,12,20,58,0,35,0,43,0,18,0,0,0,0,0,0,0],"split_type":[0,0,0,0,0,0,0,0,0,0,0,0,0,0,0,0,0,0,0,0,0,0,0,0,0,0,0],"sum_hessian":[1.5400655E2,5.36136E1,1.0039294E2,3.1262863E1,2.235074E1,9.872669E1,1.6662502E0,1.796796E1,1.3294903E1,8.073911E0,1.4276829E1,8.049986E1,1.8226824E1,6.4585056E0,6.836397E0,3.1791694E0,7.7320694E1,4.626342E0,1.3600482E1,3.998167E0,2.4603384E0,1.062369E0,2.1168003E0,3.0062613E0,1.6200804E0,1.2620052E0,2.736162E0],"tree_param":{"num_deleted":"0","num_feature":"64","num_nodes":"27","size_leaf_vector":"1"}},{"base_weights":[-4.5693353E-2,2.7298443E0,-3.9085102E-1,-1.9382002E-2,3.2428448E0,6.4141864E-1,-5.016865E-1,3.4606345E0,2.7665053E-2,1.8444195E0,-2.637794E-1,-5.3322166E-1,7.874626E-1,5.601166E-2,1.8515311E-1,-1.5611204E-2,2.4870474E0,-2.4005469E-2,2.6853412E-2,-3.1873754E-1,-2.7452711E-2,7.9810195E-2,-1.5582946E-2,1.554317E-1,9.561051E-3,1.5333503E-2,-2.4613079E-2],"categories":[],"categories_nodes":[],"categories_segments":[],"categories_sizes":[],"default_left":[0,0,0,0,0,0,0,0,0,0,0,0,0,0,0,0,0,0,0,0,0,0,0,0,0,0,0],"id":17,"left_children":[1,3,5,-1,7,9,11,13,-1,15,17,19,21,-1,-1,-1,23,-1,-1,25,-1,-1,-1,-1,-1,-1,-1],"loss_changes":[1.4858775E2,2.8695442E1,1.609141E1,0E0,6.77742E0,1.5517405E1,5.5027523E0,3.532486E0,0E0,9.163738E0,1.7739923E0,2.4146271E-1,3.510124E0,0E0,0E0,0E0,6.218292E0,0E0,0E0,1.3245815E0,0E0,0E0,0E0,0E0,0E0,0E0,0E0],"parents":[2147483647,0,0,1,1,2,2,4,4,5,5,6,6,7,7,9,9,10,10,11,11,12,12,16,16,19,19],"right_children":[2,4,6,-1,8,10,12,14,-1,16,18,20,22,-1,-1,-1,24,-1,-1,26,-1,-1,-1,-1,-1,-1,-1],"split_conditions":[3E0,1E0,8E0,-1.9382002E-2,1.5E1,3E0,1E0,1E0,2.7665053E-2,3E0,5E0,1E1,3E0,5.601166E-2,1.8515311E-1,-1.5611204E-2,2E0,-2.4005469E-2,2.6853412E-2,1E0,-2.7452711E-2,7.9810195E-2,-1.5582946E-2,1.554317E-1,9.561051E-3,1.5333503E-2,-2.4613079E-2],"split_indices":[60,21,60,0,26,58,15,34,0,51,22,60,25,0,0,0,25,0,0,26,0,0,0,0,0,0,0],"split_type":[0,0,0,0,0,0,0,0,0,0,0,0,0,0,0,0,0,0,0,0,0,0,0,0,0,0,0],"sum_hessian":[1.5298859E2,1.6156816E1,1.3683177E2,2.3175464E0,1.383927E1,1.2803047E1,1.24028725E2,1.2537341E1,1.3019286E0,5.051739E0,7.7513075E0,1.2163956E2,2.3891733E0,1.7043567E0,1.0832985E1,1.2777582E0,3.773981E0,6.418107E0,1.3332003E0,9.814456E0,1.11825096E2,1.1158607E0,1.2733126E0,2.691288E0,1.0826932E0,1.9649966E0,7.849459E0],"tree_param":{"num_deleted":"0","num_feature":"64","num_nodes":"27","size_leaf_vector":"1"}},{"base_weights":[-5.3644185E-3,-4.3967715E-1,3.9827037E-1,-2.6207605E-2,-2.413074E-1,-4.1392022E-1,1.1605921E0,-2.5267119E-2,-4.6145995E-3,1.5306185E-2,-4.5974696E-1,-1.9089621E-1,2.3908784E0,4.533432E-1,-2.3907648E-2,-5.0740266E-1,-8.433943E-2,-4.4947183E-1,3.876463E-1,3.125258E0,-1.2344782E-1,1.1932199E0,-2.1060223E-2,-1.8407837E-1,-2.678734E-2,-2.1357296E-2,3.383524E-2,-2.5697067E-2,9.589768E-3,-2.0833872E-2,1.1109879E0,1.0065289E0,3.5430477E0,-2.2067856E-2,3.5800274E-2,7.413939E-2,9.1576865E-3,-1.8844746E-2,9.770437E-3,1.0220244E-1,-1.6219968E-2,-1.6332854E-2,9.078775E-2,1.8661122E-1,6.179687E-2],"categories":[],"categories_nodes":[],"categories_segments":[],"categories_sizes":[],"default_left":[0,0,0,0,0,0,0,0,0,0,0,0,0,0,0,0,0,0,0,0,0,0,0,0,0,0,0,0,0,0,0,0,0,0,0,0,0,0,0,0,0,0,0,0,0],"id":18,"left_children":[1,3,5,-1,7,9,11,-1,13,-1,15,17,19,21,-1,23,25,27,29,31,33,35,-1,37,-1,-1,-1,-1,-1,-1,39,41,43,-1,-1,-1,-1,-1,-1,-1,-1,-1,-1,-1,-1],"loss_changes":[2.7109772E1,1.1216917E0,5.0111557E1,0E0,1.5037482E0,1.4457054E0,6.964603E1,0E0,3.1913908E0,0E0,6.295428E-1,3.2791953E0,4.0743866E1,5.3467274E0,0E0,2.0516396E-1,1.7063797E0,7.107434E-1,4.5053034E0,1.1441269E1,1.8912978E0,9.9088E-1,0E0,3.8061553E-1,0E0,0E0,0E0,0E0,0E0,0E0,5.9278083E0,5.11277E0,1.3948517E0,0E0,0E0,0E0,0E0,0E0,0E0,0E0,0E0,0E0,0E0,0E0,0E0],"parents":[2147483647,0,0,1,1,2,2,4,4,5,5,6,6,8,8,10,10,11,11,12,12,13,13,15,15,16,16,17,17,18,18,19,19,20,20,21,21,23,23,30,30,31,31,32,32],"right_children":[2,4,6,-1,8,10,12,-1,14,-1,16,18,20,22,-1,24,26,28,30,32,34,36,-1,38,-1,-1,-1,-1,-1,-1,40,42,44,-1,-1,-1,-1,-1,-1,-1,-1,-1,-1,-1,-1],"split_conditions":[1.1E1,6E0,6E0,-2.6207605E-2,7E0,1E0,9E0,-2.5267119E-2,1.4E1,1.5306185E-2,1.1E1,1.1E1,1.6E1,5E0,-2.3907648E-2,3E0,2E0,1.6E1,1.3E1,2E0,3E0,2E0,-2.1060223E-2,1.1E1,-2.678734E-2,-2.1357296E-2,3.383524E-2,-2.5697067E-2,9.589768E-3,-2.0833872E-2,3E0,1.2E1,1.1E1,-2.2067856E-2,3.5800274E-2,7.413939E-2,9.1576865E-3,-1.8844746E-2,9.770437E-3,1.0220244E-1,-1.6219968E-2,-1.6332854E-2,9.078775E-2,1.8661122E-1,6.179687E-2],"split_indices":[35,35,21,0,13,52,50,0,13,0,17,18,43,2,0,19,45,19,60,44,17,30,0,43,0,0,0,0,0,0,30,36,5,0,0,0,0,0,0,0,0,0,0,0,0],"split_type":[0,0,0,0,0,0,0,0,0,0,0,0,0,0,0,0,0,0,0,0,0,0,0,0,0,0,0,0,0,0,0,0,0,0,0,0,0,0,0,0,0,0,0,0,0],"sum_hessian":[1.5264568E2,7.348558E1,7.9160095E1,5.0386436E1,2.3099146E1,3.854772E1,4.0612373E1,1.0382393E1,1.2716753E1,1.9666758E0,3.6581047E1,1.9755495E1,2.0856878E1,6.4864097E0,6.230344E0,3.21484E1,4.432646E0,1.3807447E1,5.948048E0,1.5954065E1,4.902813E0,3.3163536E0,3.170056E0,3.195177E0,2.8953222E1,3.3585498E0,1.074096E0,1.2726543E1,1.0809038E0,3.0171103E0,2.9309378E0,3.1893177E0,1.2764748E1,3.900056E0,1.0027571E0,2.213712E0,1.1026416E0,2.1232097E0,1.0719675E0,1.5192939E0,1.4116437E0,1.4299061E0,1.7594117E0,1.12265E1,1.538248E0],"tree_param":{"num_deleted":"0","num_feature":"64","num_nodes":"45","size_leaf_vector":"1"}},{"base_weights":[-3.5035655E-2,-4.047125E-1,1.0948263E0,-4.6630365E-1,3.356028E-1,2.342236E0,-3.631796E-1,7.312864E-2,-4.9116284E-1,1.7519635E0,-2.3722237E-2,-2.0532439E-2,2.801301E0,-2.5959834E-2,3.652149E-1,-2.0839823E-2,3.9646197E-2,-5.1528984E-1,-2.921763E-1,6.7605264E-3,1.2619385E-1,-1.6334085E-2,3.0914106E0,5.687168E-2,-1.7680509E-2,-3.0094618E-1,-2.6227415E-2,2.5754863E-1,-2.4990281E-2,1.9886373E-2,3.3652468E0,-2.2255711E-2,9.992891E-3,-1.8304557E-2,4.5344185E-2,4.0375788E-2,1.8060832E-1],"categories":[],"categories_nodes":[],"categories_segments":[],"categories_sizes":[],"default_left":[0,0,0,0,0,0,0,0,0,0,0,0,0,0,0,0,0,0,0,0,0,0,0,0,0,0,0,0,0,0,0,0,0,0,0,0,0],"id":19,"left_children":[1,3,5,7,9,11,13,15,17,19,-1,-1,21,-1,23,-1,-1,25,27,-1,-1,-1,29,-1,-1,31,-1,33,-1,-1,35,-1,-1,-1,-1,-1,-1],"loss_changes":[6.503358E1,5.5025864E0,7.067673E1,1.4930344E0,1.1830277E1,2.7467896E1,2.299705E0,2.3255112E0,3.487568E-1,4.2776966E0,0E0,0E0,1.7322708E1,0E0,2.5462794E0,0E0,0E0,2.3612976E-2,1.6760122E0,0E0,0E0,0E0,1.0866501E1,0E0,0E0,5.317139E-1,0E0,2.1042192E0,0E0,0E0,6.484009E0,0E0,0E0,0E0,0E0,0E0,0E0],"parents":[2147483647,0,0,1,1,2,2,3,3,4,4,5,5,6,6,7,7,8,8,9,9,12,12,14,14,17,17,18,18,22,22,25,25,27,27,30,30],"right_children":[2,4,6,8,10,12,14,16,18,20,-1,-1,22,-1,24,-1,-1,26,28,-1,-1,-1,30,-1,-1,32,-1,34,-1,-1,36,-1,-1,-1,-1,-1,-1],"split_conditions":[1.4E1,1.6E1,4E0,1E0,2E0,7E0,1.5E1,7E0,1.2E1,1E0,-2.3722237E-2,-2.0532439E-2,9E0,-2.5959834E-2,2E0,-2.0839823E-2,3.9646197E-2,2E0,2E0,6.7605264E-3,1.2619385E-1,-1.6334085E-2,1E0,5.687168E-2,-1.7680509E-2,4E0,-2.6227415E-2,2E0,-2.4990281E-2,1.9886373E-2,1E0,-2.2255711E-2,9.992891E-3,-1.8304557E-2,4.5344185E-2,4.0375788E-2,1.8060832E-1],"split_indices":[29,21,43,51,34,28,10,46,29,30,0,0,21,0,50,0,0,60,43,0,0,0,26,0,0,25,0,35,0,0,10,0,0,0,0,0,0],"split_type":[0,0,0,0,0,0,0,0,0,0,0,0,0,0,0,0,0,0,0,0,0,0,0,0,0,0,0,0,0,0,0,0,0,0,0,0,0],"sum_hessian":[1.5363968E2,1.16246925E2,3.739275E1,1.0766017E2,8.586752E0,1.982491E1,1.756784E1,4.657301E0,1.0300287E2,2.7011042E0,5.8856473E0,2.8485305E0,1.6976377E1,1.4705275E1,2.8625648E0,3.021609E0,1.635692E0,9.04467E1,1.2556173E1,1.2526414E0,1.4484628E0,1.4301654E0,1.5546213E1,1.0992804E0,1.7632846E0,5.1323385E0,8.531436E1,3.3763726E0,9.179801E0,1.6608745E0,1.3885339E1,4.0714717E0,1.0608667E0,1.9447683E0,1.4316044E0,1.5984163E0,1.22869215E1],"tree_param":{"num_deleted":"0","num_feature":"64","num_nodes":"37","size_leaf_vector":"1"}},{"base_weights":[4.398298E-2,2.2664046E0,-5.3247875E-1,2.9677787E0,-2.3979973E-2,-2.6571408E-1,-2.7393118E-2,3.1864161E0,-1.2393281E-4,-2.4097415E-2,3.308136E-2,4.29641E-2,1.6500285E-1],"categories":[],"categories_nodes":[],"categories_segments":[],"categories_sizes":[],"default_left":[0,0,0,0,0,0,0,0,0,0,0,0,0],"id":20,"left_children":[1,3,5,7,-1,9,-1,11,-1,-1,-1,-1,-1],"loss_changes":[2.047576E2,6.481467E1,3.7548065E-1,1.7124146E1,0E0,2.0963979E0,0E0,3.6568298E0,0E0,0E0,0E0,0E0,0E0],"parents":[2147483647,0,0,1,1,2,2,3,3,5,5,7,7],"right_children":[2,4,6,8,-1,10,-1,12,-1,-1,-1,-1,-1],"split_conditions":[1E0,5E0,4E0,1.1E1,-2.3979973E-2,1.5E1,-2.7393118E-2,1E0,-1.2393281E-4,-2.4097415E-2,3.308136E-2,4.29641E-2,1.6500285E-1],"split_indices":[36,28,36,43,0,34,0,25,0,0,0,0,0],"split_type":[0,0,0,0,0,0,0,0,0,0,0,0,0],"sum_hessian":[1.578824E2,3.1913877E1,1.2596853E2,2.5356623E1,6.5572557E0,7.864463E0,1.18104065E2,2.3550333E1,1.8062888E0,6.766876E0,1.0975865E0,1.4951009E0,2.2055233E1],"tree_param":{"num_deleted":"0","num_feature":"64","num_nodes":"13","size_leaf_vector":"1"}},{"base_weights":[2.1472044E-2,-3.794259E-1,1.4075553E0,1.6499355E0,-5.2232647E-1,2.7295348E-1,2.367854E0,-2.061117E-2,1.4016037E-1,1.6623329E-1,-5.3913116E-1,1.2268155E0,-2.499918E-2,2.7677307E0,-1.9381894E-2,-1.6050465E-2,3.146399E-2,6.2638347E-4,-2.7391871E-2,1.2786694E-1,-2.3192395E-1,3.025639E0,3.2577326E-3,1.0699328E-2,-2.036024E-2,1.6122136E-1,4.025517E-2],"categories":[],"categories_nodes":[],"categories_segments":[],"categories_sizes":[],"default_left":[0,0,0,0,0,0,0,0,0,0,0,0,0,0,0,0,0,0,0,0,0,0,0,0,0,0,0],"id":21,"left_children":[1,3,5,7,9,11,13,-1,-1,15,17,19,-1,21,-1,-1,-1,-1,-1,-1,23,25,-1,-1,-1,-1,-1],"loss_changes":[8.853513E1,3.6712975E1,3.82955E1,2.1068697E1,1.4347897E0,1.3525949E1,2.225837E1,0E0,0E0,9.993207E-1,5.5303955E-1,1.637054E1,0E0,1.1591721E1,0E0,0E0,0E0,0E0,0E0,0E0,4.6187302E-1,4.209671E0,0E0,0E0,0E0,0E0,0E0],"parents":[2147483647,0,0,1,1,2,2,3,3,4,4,5,5,6,6,9,9,10,10,11,11,13,13,20,20,21,21],"right_children":[2,4,6,8,10,12,14,-1,-1,16,18,20,-1,22,-1,-1,-1,-1,-1,-1,24,26,-1,-1,-1,-1,-1],"split_conditions":[1.5E1,1E0,1.6E1,1.3E1,2E0,9E0,1E0,-2.061117E-2,1.4016037E-1,1.1E1,4E0,6E0,-2.499918E-2,1.5E1,-1.9381894E-2,-1.6050465E-2,3.146399E-2,6.2638347E-4,-2.7391871E-2,1.2786694E-1,4E0,1.1E1,3.2577326E-3,1.0699328E-2,-2.036024E-2,1.6122136E-1,4.025517E-2],"split_indices":[19,10,27,20,10,34,38,0,0,27,59,10,0,10,0,0,0,0,0,0,2,45,0,0,0,0,0],"split_type":[0,0,0,0,0,0,0,0,0,0,0,0,0,0,0,0,0,0,0,0,0,0,0,0,0,0,0],"sum_hessian":[1.5736702E2,1.2262605E2,3.474097E1,7.3730974E0,1.1525296E2,1.6513893E1,1.8227077E1,2.8749597E0,4.498138E0,2.5339513E0,1.1271901E2,7.1289835E0,9.38491E0,1.59133005E1,2.3137767E0,1.3841836E0,1.1497678E0,1.744469E0,1.1097454E2,3.3344762E0,3.7945073E0,1.4417856E1,1.4954436E0,1.0083829E0,2.7861245E0,1.2818241E1,1.5996153E0],"tree_param":{"num_deleted":"0","num_feature":"64","num_nodes":"27","size_leaf_vector":"1"}},{"base_weights":[-1.813076E-2,-3.849102E-1,1.1512989E0,-2.726813E-2,-1.1801273E-1,2.2483318E0,-4.00431E-1,-3.5018104E-1,6.790108E-1,2.8734233E0,3.6743432E-2,-2.5863802E-2,3.1418484E-2,-4.2600456E-1,4.6805874E-2,1.4888772E0,-2.2478065E-2,1.6342187E-1,2.1029745E-1,-2.2128042E-2,5.849706E-2,-4.7904217E-1,2.7261565E-2,-1.861068E-2,2.4173849E0,-1.5359682E-2,3.3178058E-2,-1.04601E-1,-2.6715428E-2,1.3728017E-1,3.410319E-2,3.155068E-2,-2.1569671E-2],"categories":[],"categories_nodes":[],"categories_segments":[],"categories_sizes":[],"default_left":[0,0,0,0,0,0,0,0,0,0,0,0,0,0,0,0,0,0,0,0,0,0,0,0,0,0,0,0,0,0,0,0,0],"id":22,"left_children":[1,3,5,-1,7,9,11,13,15,17,19,-1,-1,21,-1,23,-1,-1,25,-1,-1,27,-1,-1,29,-1,-1,31,-1,-1,-1,-1,-1],"loss_changes":[6.8633E1,5.150421E0,6.59415E1,0E0,8.9341545E0,3.104721E1,2.3293421E0,4.0127797E0,1.0670098E1,1.7780975E1,3.7650664E0,0E0,0E0,2.0990925E0,0E0,1.2308858E1,0E0,0E0,9.8643386E-1,0E0,0E0,6.552386E-1,0E0,0E0,7.1212006E-1,0E0,0E0,1.633587E0,0E0,0E0,0E0,0E0,0E0],"parents":[2147483647,0,0,1,1,2,2,4,4,5,5,6,6,7,7,8,8,9,9,10,10,13,13,15,15,18,18,21,21,24,24,27,27],"right_children":[2,4,6,-1,8,10,12,14,16,18,20,-1,-1,22,-1,24,-1,-1,26,-1,-1,28,-1,-1,30,-1,-1,32,-1,-1,-1,-1,-1],"split_conditions":[3E0,1.1E1,3E0,-2.726813E-2,3E0,8E0,1E0,5E0,1E0,1.5E1,1.5E1,-2.5863802E-2,3.1418484E-2,2E0,4.6805874E-2,5E0,-2.2478065E-2,1.6342187E-1,8E0,-2.2128042E-2,5.849706E-2,2E0,2.7261565E-2,-1.861068E-2,1.3E1,-1.5359682E-2,3.3178058E-2,1.5E1,-2.6715428E-2,1.3728017E-1,3.410319E-2,3.155068E-2,-2.1569671E-2],"split_indices":[62,43,46,0,9,45,1,49,14,19,3,0,0,62,0,52,0,0,58,0,0,42,0,0,36,0,0,36,0,0,0,0,0],"split_type":[0,0,0,0,0,0,0,0,0,0,0,0,0,0,0,0,0,0,0,0,0,0,0,0,0,0,0,0,0,0,0,0,0],"sum_hessian":[1.5797934E2,1.20771484E2,3.720786E1,7.477512E1,4.5996365E1,2.1534563E1,1.5673298E1,3.6054527E1,9.941835E0,1.6555887E1,4.978675E0,1.4521264E1,1.1520338E0,3.467911E1,1.3754181E0,5.60233E0,4.3395047E0,1.42194605E1,2.336427E0,3.9271023E0,1.0515727E0,3.336393E1,1.3151801E0,2.0641327E0,3.5381978E0,1.2413924E0,1.0950345E0,4.6631036E0,2.8700827E1,2.485839E0,1.0523587E0,1.1480023E0,3.5151012E0],"tree_param":{"num_deleted":"0","num_feature":"64","num_nodes":"33","size_leaf_vector":"1"}},{"base_weights":[2.9648874E-2,1.1612769E0,-2.703003E-1,2.509713E0,-2.7698693E-1,1.1120182E-1,-4.8223045E-1,-1.9425077E-2,3.0052493E0,-2.516458E-2,1.6837054E-1,1.1352563E0,-4.024955E-1,-2.652668E-2,-9.927582E-2,1.6271022E-1,7.3406175E-3,-2.2113929E-2,7.075144E-2,2.012724E0,-2.3224456E-2,-4.9516112E-1,2.7594498E-1,6.080903E-1,-2.3765534E-2,4.130836E-3,2.3309562E0,-2.656633E-2,7.407942E-3,5.320382E-2,-1.8677002E-2,6.887183E-2,-1.6841589E-2,1.354182E-1,1.0247095E0,-1.4127989E-2,8.47006E-2],"categories":[],"categories_nodes":[],"categories_segments":[],"categories_sizes":[],"default_left":[0,0,0,0,0,0,0,0,0,0,0,0,0,0,0,0,0,0,0,0,0,0,0,0,0,0,0,0,0,0,0,0,0,0,0,0,0],"id":23,"left_children":[1,3,5,7,9,11,13,-1,15,-1,17,19,21,-1,23,-1,-1,-1,-1,25,-1,27,29,31,-1,-1,33,-1,-1,-1,-1,-1,-1,-1,35,-1,-1],"loss_changes":[5.215332E1,6.3121166E1,9.880057E0,2.5169243E1,1.7452891E0,2.3717154E1,1.3960876E0,0E0,9.7599945E0,0E0,5.422293E0,2.2036469E1,2.0342383E0,0E0,2.9496248E0,0E0,0E0,0E0,0E0,5.88533E0,0E0,7.0491076E-1,2.5828972E0,3.3067486E0,0E0,0E0,1.3943863E0,0E0,0E0,0E0,0E0,0E0,0E0,0E0,3.5450017E0,0E0,0E0],"parents":[2147483647,0,0,1,1,2,2,3,3,4,4,5,5,6,6,8,8,10,10,11,11,12,12,14,14,19,19,21,21,22,22,23,23,26,26,34,34],"right_children":[2,4,6,8,10,12,14,-1,16,-1,18,20,22,-1,24,-1,-1,-1,-1,26,-1,28,30,32,-1,-1,34,-1,-1,-1,-1,-1,-1,-1,36,-1,-1],"split_conditions":[3E0,5E0,2E0,3E0,1.4E1,1E0,8E0,-1.9425077E-2,7E0,-2.516458E-2,5E0,2E0,5E0,-2.652668E-2,1E1,1.6271022E-1,7.3406175E-3,-2.2113929E-2,7.075144E-2,1.1E1,-2.3224456E-2,1.1E1,1.1E1,1E0,-2.3765534E-2,4.130836E-3,1.1E1,-2.656633E-2,7.407942E-3,5.320382E-2,-1.8677002E-2,6.887183E-2,-1.6841589E-2,1.354182E-1,7E0,-1.4127989E-2,8.47006E-2],"split_indices":[18,43,43,58,52,25,9,0,62,0,58,30,62,0,43,0,0,0,0,10,0,38,37,25,0,0,18,0,0,0,0,0,0,0,50,0,0],"split_type":[0,0,0,0,0,0,0,0,0,0,0,0,0,0,0,0,0,0,0,0,0,0,0,0,0,0,0,0,0,0,0,0,0,0,0,0,0],"sum_hessian":[1.5172453E2,3.11882E1,1.2053632E2,1.5712282E1,1.5475918E1,4.3216404E1,7.731992E1,2.3257585E0,1.3386524E1,1.0175326E1,5.300592E0,1.4032558E1,2.9183846E1,6.8317474E1,9.002443E0,1.2186673E1,1.1998512E0,3.9909422E0,1.3096497E0,8.895295E0,5.1372623E0,2.5914438E1,3.2694063E0,2.9104435E0,6.092E0,1.4373357E0,7.4579597E0,2.4699968E1,1.2144704E0,1.1886612E0,2.0807452E0,1.3519629E0,1.5584805E0,4.9534025E0,2.5045574E0,1.0437512E0,1.4608061E0],"tree_param":{"num_deleted":"0","num_feature":"64","num_nodes":"37","size_leaf_vector":"1"}},{"base_weights":[8.054881E-4,-2.855913E-1,2.5246465E0,5.339304E-1,-5.124296E-1,2.9104323E0,-1.7932672E-2,-2.807099E-1,1.8373405E0,-8.787385E-3,-5.2933484E-1,3.1772844E-2,1.5273549E-1,-4.608127E-1,4.373208E-1,2.5428832E0,1.6526872E-2,-2.0004489E-2,3.3850763E-2,-2.7362699E-2,-1.407852E-1,-2.5894094E-2,7.059332E-3,5.7867855E-2,-1.824256E-2,-1.4794971E-2,1.4971007E-1,-1.9395303E-2,3.0820822E-2,3.560186E-2,-2.2284413E-2],"categories":[],"categories_nodes":[],"categories_segments":[],"categories_sizes":[],"default_left":[0,0,0,0,0,0,0,0,0,0,0,0,0,0,0,0,0,0,0,0,0,0,0,0,0,0,0,0,0,0,0],"id":24,"left_children":[1,3,5,7,9,11,-1,13,15,17,19,-1,-1,21,23,25,27,-1,-1,-1,29,-1,-1,-1,-1,-1,-1,-1,-1,-1,-1],"loss_changes":[1.15524666E2,2.6957424E1,1.9161613E1,3.407677E1,9.5687866E-1,2.8101578E0,0E0,2.8290412E0,1.5745556E1,1.5279684E0,6.835861E-1,0E0,0E0,6.479075E-1,3.071948E0,1.2225418E1,1.3159847E0,0E0,0E0,0E0,1.9197764E0,0E0,0E0,0E0,0E0,0E0,0E0,0E0,0E0,0E0,0E0],"parents":[2147483647,0,0,1,1,2,2,3,3,4,4,5,5,7,7,8,8,9,9,10,10,13,13,14,14,15,15,16,16,20,20],"right_children":[2,4,6,8,10,12,-1,14,16,18,20,-1,-1,22,24,26,28,-1,-1,-1,30,-1,-1,-1,-1,-1,-1,-1,-1,-1,-1],"split_conditions":[9E0,1E0,1.1E1,4E0,1E0,1E0,-1.7932672E-2,2E0,1.1E1,1.2E1,9E0,3.1772844E-2,1.5273549E-1,1E0,1.2E1,8E0,1.1E1,-2.0004489E-2,3.3850763E-2,-2.7362699E-2,1E0,-2.5894094E-2,7.059332E-3,5.7867855E-2,-1.824256E-2,-1.4794971E-2,1.4971007E-1,-1.9395303E-2,3.0820822E-2,3.560186E-2,-2.2284413E-2],"split_indices":[33,58,10,33,4,18,0,33,21,28,30,0,0,49,4,44,18,0,0,0,20,0,0,0,0,0,0,0,0,0,0],"split_type":[0,0,0,0,0,0,0,0,0,0,0,0,0,0,0,0,0,0,0,0,0,0,0,0,0,0,0,0,0,0,0],"sum_hessian":[1.5782745E2,1.4253941E2,1.528804E1,3.060735E1,1.1193207E2,1.3475594E1,1.812446E0,1.931806E1,1.12892885E1,3.684451E0,1.0824761E2,1.1259508E0,1.2349643E1,1.5730599E1,3.5874612E0,7.850682E0,3.4386065E0,2.611184E0,1.0732675E0,1.0308509E2,5.162525E0,1.4496108E1,1.2344915E0,1.6571817E0,1.9302794E0,1.1241521E0,6.7265296E0,2.2649775E0,1.1736292E0,1.0079552E0,4.1545696E0],"tree_param":{"num_deleted":"0","num_feature":"64","num_nodes":"31","size_leaf_vector":"1"}},{"base_weights":[-1.943723E-2,9.972589E-1,-4.72927E-1,2.3378549E0,-3.6892334E-1,2.5424412E-1,-4.9030477E-1,-2.6667288E-1,2.9298074E0,8.279124E-1,-2.6422981E-2,-1.41669605E-2,3.2817632E-2,-5.3539455E-1,-2.0124757E-1,9.221143E-3,-2.1236498E-2,1.6273391E-1,2.3763062E-1,-1.4725856E-2,7.731738E-2,-2.731663E-2,-9.721183E-2,-2.5586903E-2,1.0727237E0,-1.4260145E-2,3.137153E-2,1.0480645E-2,-1.5979264E-2,1.00185E-1,-1.5354993E-2],"categories":[],"categories_nodes":[],"categories_segments":[],"categories_sizes":[],"default_left":[0,0,0,0,0,0,0,0,0,0,0,0,0,0,0,0,0,0,0,0,0,0,0,0,0,0,0,0,0,0,0],"id":25,"left_children":[1,3,5,7,9,11,13,15,17,19,-1,-1,-1,21,23,-1,-1,-1,25,-1,-1,-1,27,-1,29,-1,-1,-1,-1,-1,-1],"loss_changes":[7.132106E1,8.826358E1,1.476078E0,3.8126343E1,5.115269E0,8.678944E-1,1.2580376E0,4.63507E-1,1.6561417E1,3.0932548E0,0E0,0E0,0E0,3.784771E-1,6.776057E0,0E0,0E0,0E0,8.337476E-1,0E0,0E0,0E0,2.9961833E-1,0E0,4.993065E0,0E0,0E0,0E0,0E0,0E0,0E0],"parents":[2147483647,0,0,1,1,2,2,3,3,4,4,5,5,6,6,7,7,8,8,9,9,13,13,14,14,18,18,22,22,24,24],"right_children":[2,4,6,8,10,12,14,16,18,20,-1,-1,-1,22,24,-1,-1,-1,26,-1,-1,-1,28,-1,30,-1,-1,-1,-1,-1,-1],"split_conditions":[2E0,8E0,3E0,1E1,1E0,8E0,4E0,8E0,7E0,8E0,-2.6422981E-2,-1.41669605E-2,3.2817632E-2,3E0,1.4E1,9.221143E-3,-2.1236498E-2,1.6273391E-1,3E0,-1.4725856E-2,7.731738E-2,-2.731663E-2,1.5E1,-2.5586903E-2,2E0,-1.4260145E-2,3.137153E-2,1.0480645E-2,-1.5979264E-2,1.00185E-1,-1.5354993E-2],"split_indices":[21,61,4,10,43,52,6,51,20,46,0,0,0,57,10,0,0,0,17,0,0,0,12,0,43,0,0,0,0,0,0],"split_type":[0,0,0,0,0,0,0,0,0,0,0,0,0,0,0,0,0,0,0,0,0,0,0,0,0,0,0,0,0,0,0],"sum_hessian":[1.5266595E2,4.6721085E1,1.0594487E2,2.3222383E1,2.3498701E1,2.1546192E0,1.0379025E2,4.4022884E0,1.8820095E1,2.2711465E0,2.1227556E1,1.0483863E0,1.106233E0,8.904759E1,1.4742661E1,1.0989804E0,3.303308E0,1.6607138E1,2.2129583E0,1.1166434E0,1.154503E0,8.663809E1,2.4095018E0,1.2334764E1,2.4078982E0,1.0597992E0,1.1531593E0,1.0366055E0,1.3728963E0,1.1678199E0,1.2400782E0],"tree_param":{"num_deleted":"0","num_feature":"64","num_nodes":"31","size_leaf_vector":"1"}},{"base_weights":[3.781581E-2,-3.694322E-1,1.0052694E0,-4.4591317E-1,1.403577E0,2.0353807E-2,2.430241E0,-5.2432257E-1,-5.3367194E-2,1.2005134E-1,-1.7252726E-2,1.6254954E0,-4.0267864E-1,-2.1561736E-2,1.5426956E-1,-2.9417074E-1,-2.729774E-2,8.0947036E-1,-4.401619E-1,1.3141637E-1,-1.8323429E-2,-2.6340738E-2,5.20374E-1,2.837005E-2,-2.4412347E-2,-2.067215E-2,1.018846E-1,-5.94672E-2,-2.5244063E-2,5.9049834E-2,-1.5440221E-2,-1.4084376E-2,9.2518125E-3],"categories":[],"categories_nodes":[],"categories_segments":[],"categories_sizes":[],"default_left":[0,0,0,0,0,0,0,0,0,0,0,0,0,0,0,0,0,0,0,0,0,0,0,0,0,0,0,0,0,0,0,0,0],"id":26,"left_children":[1,3,5,7,9,11,13,15,17,-1,-1,19,21,-1,-1,23,-1,25,27,-1,-1,-1,29,-1,-1,-1,-1,31,-1,-1,-1,-1,-1],"loss_changes":[6.227869E1,1.5719768E1,6.5657104E1,3.279766E0,9.277381E0,2.0136808E1,3.7185104E1,2.8479576E-1,6.699198E0,0E0,0E0,1.331428E1,2.967841E0,0E0,0E0,1.9248053E0,0E0,1.020739E1,3.0925846E-1,0E0,0E0,0E0,2.1667776E0,0E0,0E0,0E0,0E0,2.2242504E-1,0E0,0E0,0E0,0E0,0E0],"parents":[2147483647,0,0,1,1,2,2,3,3,4,4,5,5,6,6,7,7,8,8,11,11,12,12,15,15,17,17,18,18,22,22,27,27],"right_children":[2,4,6,8,10,12,14,16,18,-1,-1,20,22,-1,-1,24,-1,26,28,-1,-1,-1,30,-1,-1,-1,-1,32,-1,-1,-1,-1,-1],"split_conditions":[1.4E1,1.3E1,7E0,1.1E1,9E0,1E0,1E0,2E0,3E0,1.2005134E-1,-1.7252726E-2,1.2E1,6E0,-2.1561736E-2,1.5426956E-1,1E0,-2.729774E-2,1.2E1,3E0,1.3141637E-1,-1.8323429E-2,-2.6340738E-2,6E0,2.837005E-2,-2.4412347E-2,-2.067215E-2,1.018846E-1,1.1E1,-2.5244063E-2,5.9049834E-2,-1.5440221E-2,-1.4084376E-2,9.2518125E-3],"split_indices":[42,46,46,42,10,29,36,10,29,0,0,27,46,0,0,29,0,45,10,0,0,0,52,0,0,0,0,27,0,0,0,0,0],"split_type":[0,0,0,0,0,0,0,0,0,0,0,0,0,0,0,0,0,0,0,0,0,0,0,0,0,0,0,0,0,0,0,0,0],"sum_hessian":[1.5612772E2,1.1031073E2,4.5816986E1,1.0646666E2,3.8440726E0,2.7691433E1,1.8125551E1,8.8461205E1,1.8005453E1,2.21023E0,1.6338425E0,5.182944E0,2.250849E1,3.4404771E0,1.4685075E1,8.854483E0,7.960673E1,5.234931E0,1.2770522E1,3.2349029E0,1.948041E0,2.0218666E1,2.2898242E0,1.2742121E0,7.5802703E0,2.9555426E0,2.2793882E0,2.1343873E0,1.0636135E1,1.038296E0,1.2515283E0,1.0384749E0,1.0959123E0],"tree_param":{"num_deleted":"0","num_feature":"64","num_nodes":"33","size_leaf_vector":"1"}},{"base_weights":[-2.4567738E-2,-1.6697322E-1,1.7662221E0,-4.4458964E-1,2.7087614E-1,2.6322157E0,-2.0295149E-1,-1.9472007E-2,-5.313007E-1,-2.332859E-1,1.3427804E0,1.4504777E-1,3.0119825E-2,9.078378E-3,-1.9326333E-2,-3.1101567E-1,9.013317E-2,-2.723269E-2,-1.7556928E-1,-5.0068337E-1,5.3883207E-1,2.5760465E0,-3.693343E-1,-2.539489E-2,4.7414023E-1,-1.8647408E-2,1.0376907E-2,-2.666735E-2,3.7794379E-3,-2.4967478E-1,1.2356203E-1,2.3136178E-2,1.4363188E-1,-2.3893397E-2,9.858823E-3,5.7989277E-2,-1.6008489E-2,2.598214E-2,-2.3680996E-2],"categories":[],"categories_nodes":[],"categories_segments":[],"categories_sizes":[],"default_left":[0,0,0,0,0,0,0,0,0,0,0,0,0,0,0,0,0,0,0,0,0,0,0,0,0,0,0,0,0,0,0,0,0,0,0,0,0,0,0],"id":27,"left_children":[1,3,5,7,9,11,13,15,17,19,21,-1,-1,-1,-1,23,-1,-1,25,27,29,31,33,-1,35,-1,-1,-1,-1,37,-1,-1,-1,-1,-1,-1,-1,-1,-1],"loss_changes":[3.940081E1,1.7498198E1,1.9944355E1,3.2287178E0,3.0627335E1,2.6039772E0,3.8112906E-1,9.020152E0,2.5086975E-1,8.322324E0,3.915213E1,0E0,0E0,0E0,0E0,2.4947433E0,0E0,0E0,3.8854656E-1,5.9537315E-1,1.6637917E1,5.3410645E0,6.137681E-1,0E0,2.2450054E0,0E0,0E0,0E0,0E0,1.6891011E0,0E0,0E0,0E0,0E0,0E0,0E0,0E0,0E0,0E0],"parents":[2147483647,0,0,1,1,2,2,3,3,4,4,5,5,6,6,7,7,8,8,9,9,10,10,15,15,18,18,19,19,20,20,21,21,22,22,24,24,29,29],"right_children":[2,4,6,8,10,12,14,16,18,20,22,-1,-1,-1,-1,24,-1,-1,26,28,30,32,34,-1,36,-1,-1,-1,-1,38,-1,-1,-1,-1,-1,-1,-1,-1,-1],"split_conditions":[1E1,1.1E1,1.2E1,5E0,1E0,5E0,1E0,8E0,8E0,1E0,1.3E1,1.4504777E-1,3.0119825E-2,9.078378E-3,-1.9326333E-2,1.4E1,9.013317E-2,-2.723269E-2,1.4E1,3E0,9E0,1E0,8E0,-2.539489E-2,1.2E1,-1.8647408E-2,1.0376907E-2,-2.666735E-2,3.7794379E-3,1.1E1,1.2356203E-1,2.3136178E-2,1.4363188E-1,-2.3893397E-2,9.858823E-3,5.7989277E-2,-1.6008489E-2,2.598214E-2,-2.3680996E-2],"split_indices":[14,43,27,45,30,20,25,30,14,38,26,0,0,0,0,34,0,0,11,22,5,5,22,0,26,0,0,0,0,26,0,0,0,0,0,0,0,0,0],"split_type":[0,0,0,0,0,0,0,0,0,0,0,0,0,0,0,0,0,0,0,0,0,0,0,0,0,0,0,0,0,0,0,0,0,0,0,0,0,0,0],"sum_hessian":[1.5234549E2,1.4196318E2,1.03823E1,8.6868935E1,5.5094254E1,6.9771934E0,3.405107E0,1.4924297E1,7.194463E1,3.800245E1,1.7091803E1,5.782452E0,1.194741E0,1.1038675E0,2.3012395E0,1.3580685E1,1.3436118E0,6.8829895E1,3.1147394E0,2.848809E1,9.514359E0,9.641943E0,7.449859E0,1.1140315E1,2.4403703E0,2.0731566E0,1.0415828E0,2.7030466E1,1.4576237E0,7.375592E0,2.1387672E0,1.5017253E0,8.140218E0,6.3833847E0,1.0664743E0,1.062826E0,1.3775443E0,1.3652282E0,6.010364E0],"tree_param":{"num_deleted":"0","num_feature":"64","num_nodes":"39","size_leaf_vector":"1"}},{"base_weights":[3.1446792E-2,-4.2717147E-1,4.2597333E-1,-4.8223555E-1,-1.0726889E-1,-4.094249E-1,1.0603689E0,-5.238393E-1,-2.5137302E-1,4.7708192E-1,-2.4254967E-2,-5.015368E-1,-7.007372E-2,-1.0514525E-1,2.0081947E0,-2.7076283E-2,-2.7912176E-1,2.5476506E-1,-2.4370944E-2,1.1249081E0,-1.865156E-2,-2.6642716E-2,-1.228075E-1,7.8818195E-2,-2.4310593E-2,-3.9019543E-1,4.1092306E-1,-6.935503E-2,2.3879366E0,1.0041918E-2,-2.163797E-2,4.3560646E-2,-1.8108692E-2,8.394963E-2,6.528705E-3,1.0340659E-2,-1.6876953E-2,-2.567312E-2,2.043832E-2,-2.3070464E-2,1.6851506E0,-2.0981302E-2,3.224048E-2,2.685904E0,1.19324766E-1,8.6012725E-3,1.1306206E-1,2.891774E0,5.86151E-1,-1.769836E-2,3.5610028E-2,2.8893689E-2,3.023565E0,5.9660465E-2,-1.4405769E-2,1.5660135E-1,3.42399E-2],"categories":[],"categories_nodes":[],"categories_segments":[],"categories_sizes":[],"default_left":[0,0,0,0,0,0,0,0,0,0,0,0,0,0,0,0,0,0,0,0,0,0,0,0,0,0,0,0,0,0,0,0,0,0,0,0,0,0,0,0,0,0,0,0,0,0,0,0,0,0,0,0,0,0,0,0,0],"id":28,"left_children":[1,3,5,7,9,11,13,15,17,19,-1,21,23,25,27,-1,29,31,-1,33,-1,-1,35,-1,-1,37,39,41,43,-1,-1,-1,-1,-1,-1,-1,-1,-1,-1,-1,45,-1,-1,47,49,-1,-1,51,53,-1,-1,-1,55,-1,-1,-1,-1],"loss_changes":[2.9586355E1,1.2808704E0,4.6997993E1,4.8547745E-1,2.968168E0,1.1728034E0,5.568575E1,8.0498695E-2,1.5260539E0,3.3779173E0,0E0,2.9313517E-1,7.2153354E0,3.613237E0,2.205413E1,0E0,5.051029E-1,1.9845731E0,0E0,1.5975323E0,0E0,0E0,3.2521373E-1,0E0,0E0,1.749551E0,1.0602371E1,1.5862019E0,1.5554794E1,0E0,0E0,0E0,0E0,0E0,0E0,0E0,0E0,0E0,0E0,0E0,2.9295082E0,0E0,0E0,7.258316E0,1.310812E0,0E0,0E0,3.9274597E0,1.9909685E0,0E0,0E0,0E0,2.2612457E0,0E0,0E0,0E0,0E0],"parents":[2147483647,0,0,1,1,2,2,3,3,4,4,5,5,6,6,7,7,8,8,9,9,11,11,12,12,13,13,14,14,16,16,17,17,19,19,22,22,25,25,26,26,27,27,28,28,40,40,43,43,44,44,47,47,48,48,52,52],"right_children":[2,4,6,8,10,12,14,16,18,20,-1,22,24,26,28,-1,30,32,-1,34,-1,-1,36,-1,-1,38,40,42,44,-1,-1,-1,-1,-1,-1,-1,-1,-1,-1,-1,46,-1,-1,48,50,-1,-1,52,54,-1,-1,-1,56,-1,-1,-1,-1],"split_conditions":[1E1,8E0,6E0,7E0,1.1E1,6E0,9E0,8E0,4E0,4E0,-2.4254967E-2,1.5E1,5E0,1E1,1E0,-2.7076283E-2,1.1E1,4E0,-2.4370944E-2,1E1,-1.865156E-2,-2.6642716E-2,6E0,7.8818195E-2,-2.4310593E-2,8E0,6E0,2E0,1.6E1,1.0041918E-2,-2.163797E-2,4.3560646E-2,-1.8108692E-2,8.394963E-2,6.528705E-3,1.0340659E-2,-1.6876953E-2,-2.567312E-2,2.043832E-2,-2.3070464E-2,1.2E1,-2.0981302E-2,3.224048E-2,1.5E1,1.2E1,8.6012725E-3,1.1306206E-1,1E0,5E0,-1.769836E-2,3.5610028E-2,2.8893689E-2,4E0,5.9660465E-2,-1.4405769E-2,1.5660135E-1,3.42399E-2],"split_indices":[27,27,21,17,3,17,50,25,54,33,0,2,2,51,44,0,3,29,0,12,0,0,34,0,0,50,53,34,51,0,0,0,0,0,0,0,0,0,0,0,10,0,0,29,10,0,0,34,2,0,0,0,25,0,0,0,0],"split_type":[0,0,0,0,0,0,0,0,0,0,0,0,0,0,0,0,0,0,0,0,0,0,0,0,0,0,0,0,0,0,0,0,0,0,0,0,0,0,0,0,0,0,0,0,0,0,0,0,0,0,0,0,0,0,0,0,0],"sum_hessian":[1.6151167E2,7.465086E1,8.686081E1,6.3255417E1,1.1395451E1,3.7644115E1,4.9216698E1,5.252146E1,1.0733956E1,4.371626E0,7.0238247E0,2.9231678E1,8.4124365E0,2.2472265E1,2.6744434E1,4.7850338E1,4.671122E0,3.38863E0,7.3453264E0,2.297544E0,2.0740817E0,2.6623224E1,2.6084538E0,1.1347508E0,7.2776856E0,1.4633412E1,7.8388534E0,4.259312E0,2.248512E1,1.0581784E0,3.6129434E0,1.4888303E0,1.8997996E0,1.0332268E0,1.2643172E0,1.0435076E0,1.5649462E0,1.2987057E1,1.6463553E0,5.0319123E0,2.806941E0,3.1344204E0,1.1248919E0,1.971212E1,2.7730007E0,1.1320843E0,1.6748568E0,1.7608501E1,2.10362E0,1.7660949E0,1.0069057E0,1.2390393E0,1.6369461E1,1.026231E0,1.077389E0,1.5319816E1,1.0496457E0],"tree_param":{"num_deleted":"0","num_feature":"64","num_nodes":"57","size_leaf_vector":"1"}},{"base_weights":[-8.868371E-3,-3.719922E-1,1.0198945E0,-4.3910193E-1,4.4280085E-1,2.2045317E0,-3.337538E-1,-1.9448714E-1,-5.2155447E-1,-2.2904553E-2,1.4367565E0,-2.1160148E-2,2.6626425E0,-2.6009409E-2,2.4225265E-1,-4.022889E-1,5.488374E-1,-2.7281737E-2,1.4528775E-2,-1.7480776E-2,1.279075E-1,3.0269895E0,-1.8398473E-2,4.7213297E-2,-2.0160517E-2,2.1484366E-2,-4.822905E-1,-2.0909809E-2,1.4645045E0,3.402831E-2,-1.9582849E-2,3.2188606E-2,1.5764879E-1,9.786313E-3,-2.6321238E-2,4.6024635E-3,1.1259003E-1],"categories":[],"categories_nodes":[],"categories_segments":[],"categories_sizes":[],"default_left":[0,0,0,0,0,0,0,0,0,0,0,0,0,0,0,0,0,0,0,0,0,0,0,0,0,0,0,0,0,0,0,0,0,0,0,0,0],"id":29,"left_children":[1,3,5,7,9,11,13,15,17,-1,19,-1,21,-1,23,25,27,-1,29,-1,-1,31,-1,-1,-1,-1,33,-1,35,-1,-1,-1,-1,-1,-1,-1,-1],"loss_changes":[6.007086E1,6.6923256E0,6.801172E1,2.1230755E0,9.201385E0,2.8218193E1,2.3219333E0,4.761902E0,1.0650997E0,0E0,1.0465444E1,0E0,2.2426056E1,0E0,2.955571E0,1.7749114E0,6.6745143E0,0E0,1.4824729E0,0E0,0E0,3.1760101E0,0E0,0E0,0E0,0E0,7.601037E-1,0E0,3.8323374E0,0E0,0E0,0E0,0E0,0E0,0E0,0E0,0E0],"parents":[2147483647,0,0,1,1,2,2,3,3,4,4,5,5,6,6,7,7,8,8,10,10,12,12,14,14,15,15,16,16,18,18,21,21,26,26,28,28],"right_children":[2,4,6,8,10,12,14,16,18,-1,20,-1,22,-1,24,26,28,-1,30,-1,-1,32,-1,-1,-1,-1,34,-1,36,-1,-1,-1,-1,-1,-1,-1,-1],"split_conditions":[1.4E1,1.6E1,8E0,1E0,4E0,5E0,1.3E1,1.3E1,8E0,-2.2904553E-2,3E0,-2.1160148E-2,9E0,-2.6009409E-2,1.3E1,6E0,7E0,-2.7281737E-2,5E0,-1.7480776E-2,1.279075E-1,1E1,-1.8398473E-2,4.7213297E-2,-2.0160517E-2,2.1484366E-2,1.1E1,-2.0909809E-2,1.1E1,3.402831E-2,-1.9582849E-2,3.2188606E-2,1.5764879E-1,9.786313E-3,-2.6321238E-2,4.6024635E-3,1.1259003E-1],"split_indices":[29,21,44,43,30,18,27,61,22,0,28,0,42,0,44,45,29,0,43,0,0,21,0,0,0,0,59,0,27,0,0,0,0,0,0,0,0],"split_type":[0,0,0,0,0,0,0,0,0,0,0,0,0,0,0,0,0,0,0,0,0,0,0,0,0,0,0,0,0,0,0,0,0,0,0,0,0],"sum_hessian":[1.5878728E2,1.1783375E2,4.0953533E1,1.09293015E2,8.540736E0,2.1504986E1,1.9448545E1,2.8399118E1,8.08939E1,4.762904E0,3.7778318E0,3.2038465E0,1.830114E1,1.4766138E1,4.682408E0,2.2553047E1,5.846071E0,7.7399376E1,3.4945192E0,1.7223582E0,2.0554736E0,1.6338129E1,1.9630105E0,2.021199E0,2.6612086E0,1.5949881E0,2.095806E1,3.1075175E0,2.7385533E0,1.0679152E0,2.4266038E0,1.1271065E0,1.5211023E1,1.0709356E0,1.9887125E1,1.4054384E0,1.3331147E0],"tree_param":{"num_deleted":"0","num_feature":"64","num_nodes":"37","size_leaf_vector":"1"}},{"base_weights":[-3.363518E-2,1.8880448E0,-2.6939934E-2,2.5466087E0,-2.4158739E-2,-1.7968826E-3,1.381282E-1],"categories":[],"categories_nodes":[],"categories_segments":[],"categories_sizes":[],"default_left":[0,0,0,0,0,0,0],"id":30,"left_children":[1,3,-1,5,-1,-1,-1],"loss_changes":[1.5355594E2,5.2654312E1,0E0,1.4561905E1,0E0,0E0,0E0],"parents":[2147483647,0,0,1,1,3,3],"right_children":[2,4,-1,6,-1,-1,-1],"split_conditions":[1E0,3E0,-2.6939934E-2,3E0,-2.4158739E-2,-1.7968826E-3,1.381282E-1],"split_indices":[36,28,0,21,0,0,0],"split_type":[0,0,0,0,0,0,0],"sum_hessian":[1.561328E2,3.1930246E1,1.2420255E2,2.4931894E1,6.998353E0,1.9882772E0,2.2943617E1],"tree_param":{"num_deleted":"0","num_feature":"64","num_nodes":"7","size_leaf_vector":"1"}},{"base_weights":[2.484043E-2,-4.501714E-1,1.333986E0,1.1435456E0,-5.277442E-1,4.05953E-1,2.2115839E0,-1.931376E-2,1.1655225E-1,4.5512067E-4,-5.3664696E-1,-1.8239759E-1,1.2610821E-1,1.1620291E0,1.3829485E-1,4.641397E-3,-2.7293488E-2,4.9282408E-1,-4.3632856E-1,1.7160277E-1,1.2303778E-1,1.0979018E0,-1.8237395E-2,-2.5354931E-2,8.83055E-3,6.159663E-2,-2.2039443E-2,7.036912E-2,1.0221886E-2],"categories":[],"categories_nodes":[],"categories_segments":[],"categories_sizes":[],"default_left":[0,0,0,0,0,0,0,0,0,0,0,0,0,0,0,0,0,0,0,0,0,0,0,0,0,0,0,0,0],"id":31,"left_children":[1,3,5,7,9,11,13,-1,-1,-1,15,17,-1,19,-1,-1,-1,21,23,25,-1,27,-1,-1,-1,-1,-1,-1,-1],"loss_changes":[9.6117836E1,1.4629587E1,3.2613495E1,1.1040455E1,5.252266E-1,2.6884737E1,8.958595E0,0E0,0E0,0E0,6.7251396E-1,3.222267E0,0E0,1.1097429E1,0E0,0E0,0E0,3.1313586E0,6.654482E-1,4.5402794E0,0E0,6.3446E-1,0E0,0E0,0E0,0E0,0E0,0E0,0E0],"parents":[2147483647,0,0,1,1,2,2,3,3,4,4,5,5,6,6,10,10,11,11,13,13,17,17,18,18,19,19,21,21],"right_children":[2,4,6,8,10,12,14,-1,-1,-1,16,18,-1,20,-1,-1,-1,22,24,26,-1,28,-1,-1,-1,-1,-1,-1,-1],"split_conditions":[1.4E1,1E0,1.6E1,1.3E1,4E0,2E0,1.3E1,-1.931376E-2,1.1655225E-1,4.5512067E-4,2E0,2E0,1.2610821E-1,1.1E1,1.3829485E-1,4.641397E-3,-2.7293488E-2,5E0,6E0,1E0,1.2303778E-1,2E0,-1.8237395E-2,-2.5354931E-2,8.83055E-3,6.159663E-2,-2.2039443E-2,7.036912E-2,1.0221886E-2],"split_indices":[19,10,12,20,3,63,51,0,0,0,10,45,0,61,0,0,0,2,6,34,0,13,0,0,0,0,0,0,0],"split_type":[0,0,0,0,0,0,0,0,0,0,0,0,0,0,0,0,0,0,0,0,0,0,0,0,0,0,0,0,0],"sum_hessian":[1.5259947E2,1.1245302E2,4.0146446E1,4.581684E0,1.0787134E2,2.0223392E1,1.9923052E1,2.2971053E0,2.2845786E0,1.7593293E0,1.0611201E2,1.6539013E1,3.6843789E0,7.9557366E0,1.1967316E1,1.4013588E0,1.0471065E2,4.262889E0,1.2276125E1,5.1559052E0,2.7998314E0,2.3350801E0,1.9278089E0,1.1160239E1,1.1158851E0,1.5172236E0,3.6386814E0,1.3071193E0,1.027961E0],"tree_param":{"num_deleted":"0","num_feature":"64","num_nodes":"29","size_leaf_vector":"1"}},{"base_weights":[-4.031026E-2,-1.983425E-1,1.7966523E0,-4.017426E-1,6.200999E-1,2.4065754E0,-1.5835042E-1,-4.2488363E-1,5.2980256E-1,-4.5282027E-1,1.7333047E0,1.3651751E-1,6.8740696E-3,1.074403E-2,-1.8083414E-2,-5.196216E-1,-1.9851825E-1,-1.48737645E-2,5.6883156E-2,-2.5618602E-2,3.6655813E-3,-2.6454717E-1,1.309235E-1,-2.6541417E-2,-2.858839E-1,1.2087277E0,-4.373289E-1,9.050595E-3,-2.113197E-2,-2.1771945E-2,9.700489E-3,-1.6216611E-2,9.180735E-2,-2.6431087E-2,-8.674662E-2,3.1976722E-2,-2.2692071E-2],"categories":[],"categories_nodes":[],"categories_segments":[],"categories_sizes":[],"default_left":[0,0,0,0,0,0,0,0,0,0,0,0,0,0,0,0,0,0,0,0,0,0,0,0,0,0,0,0,0,0,0,0,0,0,0,0,0],"id":32,"left_children":[1,3,5,7,9,11,13,15,17,19,21,-1,-1,-1,-1,23,25,-1,-1,-1,-1,27,-1,-1,29,31,33,-1,-1,-1,-1,-1,-1,-1,35,-1,-1],"loss_changes":[4.555439E1,2.4264587E1,1.5205814E1,2.729004E0,3.5551872E1,6.6319466E0,3.732609E-1,2.3393192E0,1.9780481E0,5.268276E-1,2.632315E1,0E0,0E0,0E0,0E0,5.693817E-2,1.2365163E1,0E0,0E0,0E0,0E0,4.539237E-1,0E0,0E0,5.016297E-1,5.7661176E0,9.413724E-1,0E0,0E0,0E0,0E0,0E0,0E0,0E0,2.3082697E0,0E0,0E0],"parents":[2147483647,0,0,1,1,2,2,3,3,4,4,5,5,6,6,7,7,8,8,9,9,10,10,15,15,16,16,21,21,24,24,25,25,26,26,34,34],"right_children":[2,4,6,8,10,12,14,16,18,20,22,-1,-1,-1,-1,24,26,-1,-1,-1,-1,28,-1,-1,30,32,34,-1,-1,-1,-1,-1,-1,-1,36,-1,-1],"split_conditions":[1E0,5E0,1.3E1,1.6E1,8E0,2E0,3E0,1.4E1,9E0,1.3E1,1E0,1.3651751E-1,6.8740696E-3,1.074403E-2,-1.8083414E-2,1.3E1,1E0,-1.48737645E-2,5.6883156E-2,-2.5618602E-2,3.6655813E-3,1.2E1,1.309235E-1,-2.6541417E-2,1.4E1,2E0,1.6E1,9.050595E-3,-2.113197E-2,-2.1771945E-2,9.700489E-3,-1.6216611E-2,9.180735E-2,-2.6431087E-2,9E0,3.1976722E-2,-2.2692071E-2],"split_indices":[63,9,19,58,43,46,63,51,43,51,54,0,0,0,0,2,34,0,0,0,0,4,0,0,11,61,52,0,0,0,0,0,0,0,19,0,0],"split_type":[0,0,0,0,0,0,0,0,0,0,0,0,0,0,0,0,0,0,0,0,0,0,0,0,0,0,0,0,0,0,0,0,0,0,0,0,0],"sum_hessian":[1.546946E2,1.4326192E2,1.1432668E1,1.151531E2,2.8108824E1,8.537995E0,2.8946724E0,1.1289257E2,2.260531E0,1.4615478E1,1.3493345E1,7.2939515E0,1.2440438E0,1.0007406E0,1.8939317E0,7.8671585E1,3.4220985E1,1.1737354E0,1.0867956E0,1.31528845E1,1.4625931E0,4.3580923E0,9.135253E0,7.385931E1,4.8122797E0,4.37556E0,2.9845425E1,1.1033869E0,3.2547057E0,3.7395225E0,1.0727572E0,1.4109823E0,2.9645777E0,2.3276344E1,6.56908E0,1.9563587E0,4.612721E0],"tree_param":{"num_deleted":"0","num_feature":"64","num_nodes":"37","size_leaf_vector":"1"}},{"base_weights":[-4.505156E-3,8.370939E-1,-2.4785052E-1,2.253474E0,-1.1309819E-1,-4.2704448E-1,1.7402363E-1,1.3087209E-1,-1.706814E-2,-2.6031315E-2,1.370127E0,-2.4524061E-1,-2.7023608E-2,8.3822674E-1,-4.2331427E-1,-1.6080683E-2,1.0621009E-1,1.4638744E-1,-4.803904E-1,1.3073477E0,-2.2497583E-2,2.8496912E-1,-2.601842E-2,-3.7535825E-1,8.957061E-1,-2.6245132E-2,6.497679E-3,1.8393613E0,-2.0556655E-2,3.575493E-2,-1.3994548E-2,1.0101665E-2,-2.4071487E-2,9.5290765E-2,-1.9528879E-2,-8.452675E-2,1.2058437E-1,-1.5120379E-2,9.2848865E-3],"categories":[],"categories_nodes":[],"categories_segments":[],"categories_sizes":[],"default_left":[0,0,0,0,0,0,0,0,0,0,0,0,0,0,0,0,0,0,0,0,0,0,0,0,0,0,0,0,0,0,0,0,0,0,0,0,0,0,0],"id":33,"left_children":[1,3,5,7,9,11,13,-1,-1,-1,15,17,-1,19,21,-1,-1,23,25,27,-1,29,-1,31,33,-1,-1,35,-1,-1,-1,-1,-1,-1,-1,37,-1,-1,-1],"loss_changes":[3.1497568E1,4.66819E1,9.092119E0,1.4019714E1,1.37686E1,1.5999603E0,1.474633E1,0E0,0E0,0E0,6.973155E0,3.2114513E0,0E0,1.1170231E1,1.5067861E0,0E0,0E0,5.6387763E0,6.5356207E-1,1.2725893E1,0E0,9.35787E-1,0E0,6.301216E-1,8.361705E0,0E0,0E0,1.1412914E1,0E0,0E0,0E0,0E0,0E0,0E0,0E0,2.5045982E-1,0E0,0E0,0E0],"parents":[2147483647,0,0,1,1,2,2,3,3,4,4,5,5,6,6,10,10,11,11,13,13,14,14,17,17,18,18,19,19,21,21,23,23,24,24,27,27,35,35],"right_children":[2,4,6,8,10,12,14,-1,-1,-1,16,18,-1,20,22,-1,-1,24,26,28,-1,30,-1,32,34,-1,-1,36,-1,-1,-1,-1,-1,-1,-1,38,-1,-1,-1],"split_conditions":[4E0,9E0,1.5E1,9E0,1.3E1,4E0,6E0,1.3087209E-1,-1.706814E-2,-2.6031315E-2,1E0,1.3E1,-2.7023608E-2,1.2E1,3E0,-1.6080683E-2,1.0621009E-1,9E0,9E0,1.4E1,-2.2497583E-2,1.5E1,-2.601842E-2,6E0,7E0,-2.6245132E-2,6.497679E-3,7E0,-2.0556655E-2,3.575493E-2,-1.3994548E-2,1.0101665E-2,-2.4071487E-2,9.5290765E-2,-1.9528879E-2,7E0,1.2058437E-1,-1.5120379E-2,9.2848865E-3],"split_indices":[18,35,28,19,53,42,44,0,0,0,9,18,0,35,35,0,0,45,62,29,0,44,0,60,29,0,0,61,0,0,0,0,0,0,0,2,0,0,0],"split_type":[0,0,0,0,0,0,0,0,0,0,0,0,0,0,0,0,0,0,0,0,0,0,0,0,0,0,0,0,0,0,0,0,0,0,0,0,0,0,0],"sum_hessian":[1.5178423E2,3.349687E1,1.1828736E2,1.2898477E1,2.0598392E1,8.301424E1,3.5273125E1,1.1304174E1,1.5943029E0,1.6667776E1,3.9306164E0,3.3108864E1,4.9905373E1,1.6510826E1,1.8762299E1,1.3886739E0,2.5419424E0,1.2563151E1,2.0545713E1,1.2092261E1,4.4185658E0,2.0277758E0,1.6734522E1,7.700447E0,4.862704E0,1.9279642E1,1.2660723E0,9.179955E0,2.9123063E0,1.0001824E0,1.0275935E0,1.0546815E0,6.645766E0,2.4539726E0,2.4087315E0,2.3001738E0,6.879781E0,1.2074857E0,1.092688E0],"tree_param":{"num_deleted":"0","num_feature":"64","num_nodes":"39","size_leaf_vector":"1"}},{"base_weights":[-5.588034E-2,-3.0095825E-1,2.2545154E0,-3.8703984E-1,1.8220271E0,1.3477327E-1,3.3638343E-1,-4.3602762E-1,8.23332E-2,1.2242603E-1,-1.4929138E-2,5.3842496E-2,-1.804011E-2,-2.167638E-2,-5.2800363E-1,-4.7490472E-1,1.371104E0,9.8189525E-3,-5.369682E-1,-2.6141902E-2,5.911464E-3,1.1628159E-1,-1.8934015E-2,-2.9107806E-1,-2.729634E-2,-2.1962237E-2,1.0384259E-2],"categories":[],"categories_nodes":[],"categories_segments":[],"categories_sizes":[],"default_left":[0,0,0,0,0,0,0,0,0,0,0,0,0,0,0,0,0,0,0,0,0,0,0,0,0,0,0],"id":34,"left_children":[1,3,5,7,9,-1,11,13,-1,-1,-1,-1,-1,15,17,19,21,-1,23,-1,-1,-1,-1,25,-1,-1,-1],"loss_changes":[8.8214E1,2.6409065E1,1.1732811E1,1.4266663E1,8.24534E0,0E0,2.4203746E0,5.0795803E0,0E0,0E0,0E0,0E0,0E0,1.662752E1,8.150692E-1,6.258292E-1,1.1688865E1,0E0,7.945824E-2,0E0,0E0,0E0,0E0,5.3063506E-1,0E0,0E0,0E0],"parents":[2147483647,0,0,1,1,2,2,3,3,4,4,6,6,7,7,13,13,14,14,15,15,16,16,18,18,23,23],"right_children":[2,4,6,8,10,-1,12,14,-1,-1,-1,-1,-1,16,18,20,22,-1,24,-1,-1,-1,-1,26,-1,-1,-1],"split_conditions":[9E0,8E0,7E0,1.5E1,3E0,1.3477327E-1,1E0,1E0,8.23332E-2,1.2242603E-1,-1.4929138E-2,5.3842496E-2,-1.804011E-2,1.5E1,2E0,9E0,9E0,9.8189525E-3,2E0,-2.6141902E-2,5.911464E-3,1.1628159E-1,-1.8934015E-2,1.2E1,-2.729634E-2,-2.1962237E-2,1.0384259E-2],"split_indices":[33,41,10,22,10,0,5,50,0,0,0,0,0,34,59,25,5,0,12,0,0,0,0,21,0,0,0],"split_type":[0,0,0,0,0,0,0,0,0,0,0,0,0,0,0,0,0,0,0,0,0,0,0,0,0,0,0],"sum_hessian":[1.5359433E2,1.3965048E2,1.39438505E1,1.3499449E2,4.655988E0,1.1008016E1,2.9358342E0,1.3258635E2,2.4081345E0,3.4747958E0,1.1811923E0,1.1596388E0,1.7761954E0,2.4309212E1,1.0827714E2,1.8838085E1,5.471127E0,1.0680366E0,1.0720911E2,1.7539194E1,1.2988908E0,3.327073E0,2.1440537E0,4.9460077E0,1.022631E2,3.905223E0,1.0407851E0],"tree_param":{"num_deleted":"0","num_feature":"64","num_nodes":"27","size_leaf_vector":"1"}},{"base_weights":[-1.8752161E-2,-3.5270703E-1,7.802927E-1,2.5028288E-1,-4.3145972E-1,-2.5782699E-2,1.4003319E0,-2.8792417E-1,1.3632727E0,-2.601741E-1,-2.709406E-2,-2.3880849E-2,1.9204599E0,-2.4298498E-2,3.0462284E-2,9.6859865E-2,-1.3929868E-2,4.2714253E-1,-3.6411345E-1,7.6629746E-1,2.4083292E0,-1.960275E-2,5.9974115E-2,-4.4145137E-1,4.1741475E-1,1.6310447E0,-2.3687823E-1,2.565221E0,8.221076E-3,1.7037688E-1,-4.9930432E-1,-1.6775265E-2,5.6737076E-2,2.4225075E-2,9.888285E-2,8.844315E-3,-2.0306142E-2,1.0873059E0,1.4137344E-1,-1.6547069E-2,3.5563823E-2,-2.654641E-2,-1.5916805E-1,9.350281E-2,-1.5584685E-2,9.804015E-3,-1.7982954E-2],"categories":[],"categories_nodes":[],"categories_segments":[],"categories_sizes":[],"default_left":[0,0,0,0,0,0,0,0,0,0,0,0,0,0,0,0,0,0,0,0,0,0,0,0,0,0,0,0,0,0,0,0,0,0,0,0,0,0,0,0,0,0,0,0,0,0,0],"id":35,"left_children":[1,3,5,7,9,-1,11,13,15,17,-1,-1,19,-1,-1,-1,-1,21,23,25,27,-1,-1,29,31,33,35,37,-1,39,41,-1,-1,-1,-1,-1,-1,43,-1,-1,-1,-1,45,-1,-1,-1,-1],"loss_changes":[4.062832E1,5.2051706E0,3.6788654E1,8.199083E0,1.6615982E0,0E0,3.0834408E1,2.0035899E0,4.706807E0,2.9617288E0,0E0,0E0,1.1772369E1,0E0,0E0,0E0,0E0,4.0261025E0,2.2792296E0,7.892113E0,5.398445E0,0E0,0E0,1.2186542E0,2.3439813E0,9.388504E-1,4.1348037E-1,2.8880005E0,0E0,1.1877824E0,2.3295355E-1,0E0,0E0,0E0,0E0,0E0,0E0,4.9009123E0,0E0,0E0,0E0,0E0,3.5105383E-1,0E0,0E0,0E0,0E0],"parents":[2147483647,0,0,1,1,2,2,3,3,4,4,6,6,7,7,8,8,9,9,12,12,17,17,18,18,19,19,20,20,23,23,24,24,25,25,26,26,27,27,29,29,30,30,37,37,42,42],"right_children":[2,4,6,8,10,-1,12,14,16,18,-1,-1,20,-1,-1,-1,-1,22,24,26,28,-1,-1,30,32,34,36,38,-1,40,42,-1,-1,-1,-1,-1,-1,44,-1,-1,-1,-1,46,-1,-1,-1,-1],"split_conditions":[1.1E1,8E0,9E0,4E0,5E0,-2.5782699E-2,1.2E1,4E0,1E0,7E0,-2.709406E-2,-2.3880849E-2,2E0,-2.4298498E-2,3.0462284E-2,9.6859865E-2,-1.3929868E-2,5E0,1.6E1,1E0,6E0,-1.960275E-2,5.9974115E-2,1.1E1,2E0,1.5E1,2E0,3E0,8.221076E-3,1.4E1,1E0,-1.6775265E-2,5.6737076E-2,2.4225075E-2,9.888285E-2,8.844315E-3,-2.0306142E-2,8E0,1.4137344E-1,-1.6547069E-2,3.5563823E-2,-2.654641E-2,1E0,9.350281E-2,-1.5584685E-2,9.804015E-3,-1.7982954E-2],"split_indices":[5,60,18,17,43,0,59,9,30,45,0,0,25,0,0,0,0,25,35,38,30,0,0,60,5,18,14,45,0,18,57,0,0,0,0,0,0,36,0,0,0,0,35,0,0,0,0],"split_type":[0,0,0,0,0,0,0,0,0,0,0,0,0,0,0,0,0,0,0,0,0,0,0,0,0,0,0,0,0,0,0,0,0,0,0,0,0,0,0,0,0,0,0,0,0,0,0],"sum_hessian":[1.5022304E2,1.0633832E2,4.3884724E1,1.2032249E1,9.430607E1,1.4256176E1,2.9628548E1,8.610019E0,3.42223E0,3.828093E1,5.602514E1,6.4439764E0,2.318457E1,7.4285364E0,1.1814826E0,2.4025378E0,1.0196924E0,4.620114E0,3.3660816E1,7.6522317E0,1.553234E1,2.4809866E0,2.1391273E0,3.1025738E1,2.6350796E0,3.7735302E0,3.8787014E0,1.4383467E1,1.1488726E0,2.5122495E0,2.8513489E1,1.5453424E0,1.0897372E0,1.4325802E0,2.34095E0,1.11286E0,2.7658415E0,2.943162E0,1.1440305E1,1.5052832E0,1.0069664E0,2.5574768E1,2.93872E0,1.6713309E0,1.2718312E0,1.0681225E0,1.8705975E0],"tree_param":{"num_deleted":"0","num_feature":"64","num_nodes":"47","size_leaf_vector":"1"}},{"base_weights":[5.2696742E-2,1.2314615E0,-5.098444E-1,-4.7860432E-1,2.3488517E0,-5.185046E-1,3.2998961E-3,9.938762E-3,-2.6201427E-2,-9.729631E-2,2.766209E0,-2.726823E-2,-3.4659818E-1,-2.1461794E-2,3.1055564E-2,1.424882E-1,2.8756974E-2,-2.5245199E-2,-6.952465E-3,3.4861848E-2,-2.1723634E-2],"categories":[],"categories_nodes":[],"categories_segments":[],"categories_sizes":[],"default_left":[0,0,0,0,0,0,0,0,0,0,0,0,0,0,0,0,0,0,0,0,0],"id":36,"left_children":[1,3,5,7,9,11,-1,-1,-1,13,15,-1,17,-1,-1,-1,-1,-1,19,-1,-1],"loss_changes":[1.0626409E2,1.0002322E2,5.7554245E-1,7.590904E-1,3.240013E1,3.052845E-1,0E0,0E0,0E0,1.590858E0,3.2892914E0,0E0,9.218426E-1,0E0,0E0,0E0,0E0,0E0,2.2553658E0,0E0,0E0],"parents":[2147483647,0,0,1,1,2,2,3,3,4,4,5,5,9,9,10,10,12,12,18,18],"right_children":[2,4,6,8,10,12,-1,-1,-1,14,16,-1,18,-1,-1,-1,-1,-1,20,-1,-1],"split_conditions":[1E0,1E1,1.4E1,3E0,1E0,1.6E1,3.2998961E-3,9.938762E-3,-2.6201427E-2,1.2E1,8E0,-2.726823E-2,1.5E1,-2.1461794E-2,3.1055564E-2,1.424882E-1,2.8756974E-2,-2.5245199E-2,9E0,3.4861848E-2,-2.1723634E-2],"split_indices":[21,42,46,10,54,34,0,0,0,53,20,0,51,0,0,0,0,0,21,0,0],"split_type":[0,0,0,0,0,0,0,0,0,0,0,0,0,0,0,0,0,0,0,0,0],"sum_hessian":[1.5830576E2,5.0757645E1,1.0754812E2,2.0284975E1,3.047267E1,1.0605274E2,1.495379E0,1.0626373E0,1.9222338E1,4.5531783E0,2.591949E1,8.98426E1,1.621014E1,3.3895555E0,1.1636231E0,2.4677792E1,1.2416991E0,1.0724833E1,5.485307E0,1.8338298E0,3.6514776E0],"tree_param":{"num_deleted":"0","num_feature":"64","num_nodes":"21","size_leaf_vector":"1"}},{"base_weights":[-5.947745E-2,-2.3621061E-1,1.0466952E0,-2.821694E-1,1.3451774E0,1.8661637E0,-9.509232E-2,1.85219E-1,-4.618784E-1,-1.5122964E-2,1.0730231E-1,-1.8147321E-2,2.302478E0,-3.662377E-1,4.053265E-2,-2.5819344E-2,6.782662E-1,-5.1898575E-1,-1.8828478E-1,-1.5186933E-2,1.336753E-1,9.369067E-3,-2.379965E-2,-2.4819912E-2,1.5044869E0,-2.9437506E-1,-2.7175799E-2,-4.4918916E-1,9.024341E-1,-2.1391053E-2,2.2218966E0,-2.436664E-2,2.9291073E-2,-2.554718E-2,2.557514E-3,-1.3891587E-2,7.176012E-2,2.4029257E-2,2.4649637E0,1.3110036E-1,3.450949E-2],"categories":[],"categories_nodes":[],"categories_segments":[],"categories_sizes":[],"default_left":[0,0,0,0,0,0,0,0,0,0,0,0,0,0,0,0,0,0,0,0,0,0,0,0,0,0,0,0,0,0,0,0,0,0,0,0,0,0,0,0,0],"id":37,"left_children":[1,3,5,7,9,11,13,15,17,-1,-1,-1,19,21,-1,-1,23,25,27,-1,-1,-1,-1,-1,29,31,-1,33,35,-1,37,-1,-1,-1,-1,-1,-1,-1,39,-1,-1],"loss_changes":[3.0310266E1,1.0075533E1,2.0171051E1,1.104403E1,5.849481E0,1.2981998E1,2.723275E0,1.313101E1,1.3790989E0,0E0,0E0,0E0,1.1043129E1,5.930625E-1,0E0,0E0,2.222527E1,2.6771927E-1,5.4968843E0,0E0,0E0,0E0,0E0,0E0,1.9305088E1,1.9541535E0,0E0,4.928763E-1,2.7794058E0,0E0,2.9704666E0,0E0,0E0,0E0,0E0,0E0,0E0,0E0,5.238228E-1,0E0,0E0],"parents":[2147483647,0,0,1,1,2,2,3,3,4,4,5,5,6,6,7,7,8,8,12,12,13,13,16,16,17,17,18,18,24,24,25,25,27,27,28,28,30,30,38,38],"right_children":[2,4,6,8,10,12,14,16,18,-1,-1,-1,20,22,-1,-1,24,26,28,-1,-1,-1,-1,-1,30,32,-1,34,36,-1,38,-1,-1,-1,-1,-1,-1,-1,40,-1,-1],"split_conditions":[1.5E1,1E0,1E0,6E0,8E0,7E0,1.3E1,7E0,1E1,-1.5122964E-2,1.0730231E-1,-1.8147321E-2,1E0,3E0,4.053265E-2,-2.5819344E-2,4E0,8E0,1.5E1,-1.5186933E-2,1.336753E-1,9.369067E-3,-2.379965E-2,-2.4819912E-2,3E0,1.6E1,-2.7175799E-2,1.2E1,1.5E1,-2.1391053E-2,1.2E1,-2.436664E-2,2.9291073E-2,-2.554718E-2,2.557514E-3,-1.3891587E-2,7.176012E-2,2.4029257E-2,1.6E1,1.3110036E-1,3.450949E-2],"split_indices":[5,7,25,18,10,37,43,43,5,0,0,0,43,28,0,0,10,18,43,0,0,0,0,0,29,29,0,43,36,0,35,0,0,0,0,0,0,0,44,0,0],"split_type":[0,0,0,0,0,0,0,0,0,0,0,0,0,0,0,0,0,0,0,0,0,0,0,0,0,0,0,0,0,0,0,0,0,0,0,0,0,0,0,0,0],"sum_hessian":[1.5277711E2,1.3240866E2,2.0368465E1,1.2946759E2,2.9410589E0,1.1488599E1,8.879868E0,3.5946644E1,9.352095E1,1.1655321E0,1.7755268E0,1.9081419E0,9.580457E0,7.292441E0,1.5874264E0,1.4816061E1,2.1130585E1,7.662918E1,1.6891771E1,1.2165294E0,8.363927E0,1.0895175E0,6.2029233E0,8.89024E0,1.2240344E1,8.824875E0,6.7804306E1,1.4105783E1,2.7859888E0,3.4233575E0,8.816987E0,7.6042075E0,1.2206669E0,1.2537186E1,1.5685973E0,1.015288E0,1.7707007E0,1.4446695E0,7.3723173E0,6.334431E0,1.0378861E0],"tree_param":{"num_deleted":"0","num_feature":"64","num_nodes":"41","size_leaf_vector":"1"}},{"base_weights":[2.2048289E-2,-4.5970672E-1,3.169777E-1,-7.630974E-2,-5.2132666E-1,-3.4945717E-1,8.0099505E-1,5.5877835E-2,-2.4069903E-2,-2.6988853E-2,-2.1182904E-1,3.1068016E-2,-4.1370425E-1,-2.9356716E-2,1.6238155E0,1.090073E-2,-1.9817993E-2,-4.9658474E-1,-2.0460549E-1,-4.450248E-1,3.4350148E-1,-5.7097428E-2,2.0744765E0,-1.7671256E-1,-2.6479632E-2,3.34221E-2,-3.3923766E-1,4.95306E-3,-2.5515188E-2,-1.268265E-1,1.7270731E0,4.2758282E-2,-2.2768611E-2,2.4564686E0,2.8427371E-3,1.0569013E-2,-1.872832E-2,-2.4689497E-2,1.9381654E-1,3.8144644E-2,-3.2763427E-1,1.20583974E-1,5.9818793E-3,1.6683675E-2,2.665068E0,-1.9684019E-2,3.2749902E-2,3.4875248E-2,-1.6009314E-2,-2.4721038E-2,1.7194927E-2,2.764587E0,4.510201E-2,1.4342761E-1,4.719229E-2],"categories":[],"categories_nodes":[],"categories_segments":[],"categories_sizes":[],"default_left":[0,0,0,0,0,0,0,0,0,0,0,0,0,0,0,0,0,0,0,0,0,0,0,0,0,0,0,0,0,0,0,0,0,0,0,0,0,0,0,0,0,0,0,0,0,0,0,0,0,0,0,0,0,0,0],"id":38,"left_children":[1,3,5,7,9,11,13,-1,-1,-1,15,-1,17,19,21,-1,-1,23,25,27,29,31,33,35,-1,-1,37,-1,-1,39,41,-1,-1,43,45,-1,-1,-1,47,-1,49,-1,-1,-1,51,-1,-1,-1,-1,-1,-1,53,-1,-1,-1],"loss_changes":[2.2596151E1,1.3873615E0,3.2084927E1,5.1498175E0,1.818676E-1,2.887866E0,3.927933E1,0E0,0E0,0E0,4.484472E-1,0E0,5.944009E-1,4.7345204E0,2.1979767E1,0E0,0E0,2.0268536E-1,1.7666401E0,5.6250167E-1,1.0726924E1,2.9598532E0,1.8023346E1,3.9595598E-1,0E0,0E0,1.085463E0,0E0,0E0,2.5694783E0,4.294944E0,0E0,0E0,7.6287155E0,1.4340343E0,0E0,0E0,0E0,1.1083627E0,0E0,1.4347275E0,0E0,0E0,0E0,5.5418396E-1,0E0,0E0,0E0,0E0,0E0,0E0,3.1352234E-1,0E0,0E0,0E0],"parents":[2147483647,0,0,1,1,2,2,3,3,4,4,5,5,6,6,10,10,12,12,13,13,14,14,17,17,18,18,19,19,20,20,21,21,22,22,23,23,26,26,29,29,30,30,33,33,34,34,38,38,40,40,44,44,51,51],"right_children":[2,4,6,8,10,12,14,-1,-1,-1,16,-1,18,20,22,-1,-1,24,26,28,30,32,34,36,-1,-1,38,-1,-1,40,42,-1,-1,44,46,-1,-1,-1,48,-1,50,-1,-1,-1,52,-1,-1,-1,-1,-1,-1,54,-1,-1,-1],"split_conditions":[8E0,2E0,6E0,1.1E1,7E0,1E0,9E0,5.5877835E-2,-2.4069903E-2,-2.6988853E-2,1E1,3.1068016E-2,1.3E1,2E0,1E0,1.090073E-2,-1.9817993E-2,3E0,5E0,1E1,2E0,9E0,1.6E1,1E0,-2.6479632E-2,3.34221E-2,1.6E1,4.95306E-3,-2.5515188E-2,4E0,9E0,4.2758282E-2,-2.2768611E-2,1E0,1E0,1.0569013E-2,-1.872832E-2,-2.4689497E-2,7E0,3.8144644E-2,9E0,1.20583974E-1,5.9818793E-3,1.6683675E-2,1.3E1,-1.9684019E-2,3.2749902E-2,3.4875248E-2,-1.6009314E-2,-2.4721038E-2,1.7194927E-2,1.4E1,4.510201E-2,1.4342761E-1,4.719229E-2],"split_indices":[27,37,21,51,27,52,50,0,0,0,3,0,45,43,43,0,0,36,52,27,54,45,43,17,0,0,11,0,0,29,52,0,0,44,17,0,0,0,44,0,14,0,0,0,2,0,0,0,0,0,0,51,0,0,0],"split_type":[0,0,0,0,0,0,0,0,0,0,0,0,0,0,0,0,0,0,0,0,0,0,0,0,0,0,0,0,0,0,0,0,0,0,0,0,0,0,0,0,0,0,0,0,0,0,0,0,0,0,0,0,0,0,0],"sum_hessian":[1.5700848E2,5.9408485E1,9.7600006E1,8.53603E0,5.0872456E1,4.117916E1,5.6420845E1,1.7169828E0,6.819047E0,4.730819E1,3.5642672E0,2.0177748E0,3.9161385E1,2.8561869E1,2.7858976E1,1.0160471E0,2.5482202E0,2.706052E1,1.2100865E1,1.3414087E1,1.5147781E1,6.074628E0,2.1784348E1,3.1255116E0,2.3935009E1,1.087008E0,1.1013857E1,1.381562E0,1.2032526E1,1.1982734E1,3.1650476E0,1.4974618E0,4.577166E0,1.8236015E1,3.548333E0,1.0322919E0,2.0932198E0,8.595391E0,2.4184654E0,1.691055E0,1.0291678E1,1.868799E0,1.2962487E0,1.8642455E0,1.6371769E1,2.453125E0,1.095208E0,1.0411762E0,1.377289E0,8.455385E0,1.8362938E0,1.4959261E1,1.4125087E0,1.3606818E1,1.3524421E0],"tree_param":{"num_deleted":"0","num_feature":"64","num_nodes":"55","size_leaf_vector":"1"}},{"base_weights":[4.3970037E-2,-3.548079E-1,1.0807176E0,-1.7332217E-2,-5.0635135E-1,2.0584118E0,1.4395693E-1,2.0023792E0,-2.6568627E-1,-5.1841414E-1,6.575828E-3,2.4837549E0,-2.0770343E-2,7.7438986E-1,-4.3294904E-1,2.939929E-2,1.1985814E-1,-3.6974052E-1,6.1963135E-1,-2.6532277E-2,-1.1270879E-1,5.19162E-3,2.6646137E0,-2.0775108E-2,1.2257771E0,-2.5262212E-2,8.312835E-3,2.779981E-2,-4.3003365E-1,-1.59749E-2,6.310754E-2,1.1023868E-2,-1.6661456E-2,1.3795105E-1,3.3001177E-2,2.079835E0,1.5583014E-1,6.329627E-2,-4.9207816E-1,3.1206964E-2,1.1889843E-1,-1.9968707E-2,4.4045173E-2,3.439985E-2,-1.8691264E-2,-2.64631E-2,4.7225314E-3],"categories":[],"categories_nodes":[],"categories_segments":[],"categories_sizes":[],"default_left":[0,0,0,0,0,0,0,0,0,0,0,0,0,0,0,0,0,0,0,0,0,0,0,0,0,0,0,0,0,0,0,0,0,0,0,0,0,0,0,0,0,0,0,0,0,0,0],"id":39,"left_children":[1,3,5,7,9,11,13,15,17,19,-1,21,-1,23,25,-1,-1,27,29,-1,31,-1,33,-1,35,-1,-1,-1,37,-1,-1,-1,-1,-1,-1,39,41,43,45,-1,-1,-1,-1,-1,-1,-1,-1],"loss_changes":[6.5263504E1,5.826002E0,3.985634E1,1.878578E1,6.737194E-1,2.3524818E1,8.869321E0,8.80949E-1,3.2957108E0,3.2447433E-1,0E0,7.6362534E0,0E0,6.723963E0,6.425557E-1,0E0,0E0,1.9366789E0,2.7413268E0,0E0,3.332781E-1,0E0,1.4046707E0,0E0,7.572624E0,0E0,0E0,0E0,9.2240953E-1,0E0,0E0,0E0,0E0,0E0,0E0,5.66288E-1,2.3312132E0,1.3874332E0,6.165805E-1,0E0,0E0,0E0,0E0,0E0,0E0,0E0,0E0],"parents":[2147483647,0,0,1,1,2,2,3,3,4,4,5,5,6,6,7,7,8,8,9,9,11,11,13,13,14,14,17,17,18,18,20,20,22,22,24,24,28,28,35,35,36,36,37,37,38,38],"right_children":[2,4,6,8,10,12,14,16,18,20,-1,22,-1,24,26,-1,-1,28,30,-1,32,-1,34,-1,36,-1,-1,-1,38,-1,-1,-1,-1,-1,-1,40,42,44,46,-1,-1,-1,-1,-1,-1,-1,-1],"split_conditions":[1.4E1,1E0,9E0,1E0,1.2E1,4E0,1E0,1E1,3E0,8E0,6.575828E-3,3E0,-2.0770343E-2,2E0,1.6E1,2.939929E-2,1.1985814E-1,1E0,1E1,-2.6532277E-2,1.6E1,5.19162E-3,4E0,-2.0775108E-2,1.1E1,-2.5262212E-2,8.312835E-3,2.779981E-2,5E0,-1.59749E-2,6.310754E-2,1.1023868E-2,-1.6661456E-2,1.3795105E-1,3.3001177E-2,1E0,3E0,1E1,2E0,3.1206964E-2,1.1889843E-1,-1.9968707E-2,4.4045173E-2,3.439985E-2,-1.8691264E-2,-2.64631E-2,4.7225314E-3],"split_indices":[29,42,36,36,38,33,42,20,22,49,0,27,0,18,50,0,0,52,26,0,50,0,42,0,52,0,0,0,60,0,0,0,0,0,0,20,30,36,22,0,0,0,0,0,0,0,0],"split_type":[0,0,0,0,0,0,0,0,0,0,0,0,0,0,0,0,0,0,0,0,0,0,0,0,0,0,0,0,0,0,0,0,0,0,0,0,0,0,0,0,0,0,0,0,0,0,0],"sum_hessian":[1.559304E2,1.1308918E2,4.284122E1,3.539085E1,7.7698326E1,2.0376722E1,2.2464499E1,3.1019545E0,3.2288895E1,7.644003E1,1.2582933E0,1.7383778E1,2.992946E0,1.0570702E1,1.1893797E1,1.220096E0,1.8818583E0,2.9414122E1,2.874773E0,7.390399E1,2.536047E0,1.3389274E0,1.604485E1,2.9290357E0,7.641666E0,1.0753213E1,1.1405841E0,1.2958707E0,2.811825E1,1.3720613E0,1.5027118E0,1.0100889E0,1.5259581E0,1.4963774E1,1.0810758E0,3.7246733E0,3.9169927E0,3.1390188E0,2.4979233E1,1.1590198E0,2.5656533E0,2.4727495E0,1.4442431E0,1.0559746E0,2.0830443E0,2.3581863E1,1.3973688E0],"tree_param":{"num_deleted":"0","num_feature":"64","num_nodes":"47","size_leaf_vector":"1"}},{"base_weights":[3.4330025E-2,1.7631395E0,-5.273458E-1,-2.3598865E-2,2.210704E0,-2.6401478E-1,-2.7221654E-2,-1.5293911E-2,2.325188E0,-2.3973001E-2,3.303265E-2,1.0548077E-2,2.3915832E0,3.0332163E-2,1.2225815E-1],"categories":[],"categories_nodes":[],"categories_segments":[],"categories_sizes":[],"default_left":[0,0,0,0,0,0,0,0,0,0,0,0,0,0,0],"id":40,"left_children":[1,3,5,-1,7,9,-1,-1,11,-1,-1,-1,13,-1,-1],"loss_changes":[1.464565E2,3.803781E1,3.6870956E-1,0E0,9.638916E0,2.0860338E0,0E0,0E0,3.672348E0,0E0,0E0,0E0,1.266449E0,0E0,0E0],"parents":[2147483647,0,0,1,1,2,2,4,4,5,5,8,8,12,12],"right_children":[2,4,6,-1,8,10,-1,-1,12,-1,-1,-1,14,-1,-1],"split_conditions":[1E0,4E0,4E0,-2.3598865E-2,7E0,1.4E1,-2.7221654E-2,-1.5293911E-2,2E0,-2.3973001E-2,3.303265E-2,1.0548077E-2,1E0,3.0332163E-2,1.2225815E-1],"split_indices":[36,42,36,0,59,34,0,0,29,0,0,0,25,0,0],"split_type":[0,0,0,0,0,0,0,0,0,0,0,0,0,0,0],"sum_hessian":[1.4886832E2,3.5981136E1,1.12887184E2,5.993805E0,2.9987333E1,7.8812337E0,1.0500595E2,1.2320741E0,2.8755259E1,6.7824244E0,1.0988092E0,1.0027286E0,2.7752531E1,1.1678945E0,2.6584637E1],"tree_param":{"num_deleted":"0","num_feature":"64","num_nodes":"15","size_leaf_vector":"1"}},{"base_weights":[1.0732934E-2,-3.8092837E-1,1.3619149E0,-4.6226797E-1,2.9248822E-1,2.162473E0,-6.805742E-2,-5.1374245E-1,4.3711653E-3,-3.7286636E-1,1.2338697E0,1.8085664E-2,2.2997055E0,-2.4783244E-2,9.4627845E-1,-3.4518483E-1,-2.7150175E-2,7.571528E-2,-2.4652123E-2,9.748397E-3,-2.3904378E-2,9.5995866E-2,-4.227441E-2,2.4159393E0,3.4927364E-2,-1.6129397E-2,8.30644E-2,1.8708548E-2,-4.5087007E-1,-1.3811401E-2,1.0594442E-2,1.24307774E-1,3.2627735E-2,9.675157E-3,-2.5657175E-2],"categories":[],"categories_nodes":[],"categories_segments":[],"categories_sizes":[],"default_left":[0,0,0,0,0,0,0,0,0,0,0,0,0,0,0,0,0,0,0,0,0,0,0,0,0,0,0,0,0,0,0,0,0,0,0],"id":41,"left_children":[1,3,5,7,9,11,13,15,17,19,21,-1,23,-1,25,27,-1,-1,-1,-1,-1,-1,29,31,-1,-1,-1,-1,33,-1,-1,-1,-1,-1,-1],"loss_changes":[8.173698E1,6.6953487E0,3.987961E1,2.5782661E0,8.927974E0,4.67437E0,6.292558E0,2.890072E-1,9.493722E0,6.123582E-1,5.18573E0,0E0,2.1306992E0,0E0,4.4600735E0,1.4636924E0,0E0,0E0,0E0,0E0,0E0,0E0,2.37927E-1,6.9571686E-1,0E0,0E0,0E0,0E0,7.1345234E-1,0E0,0E0,0E0,0E0,0E0,0E0],"parents":[2147483647,0,0,1,1,2,2,3,3,4,4,5,5,6,6,7,7,8,8,9,9,10,10,12,12,14,14,15,15,22,22,23,23,28,28],"right_children":[2,4,6,8,10,12,14,16,18,20,22,-1,24,-1,26,28,-1,-1,-1,-1,-1,-1,30,32,-1,-1,-1,-1,34,-1,-1,-1,-1,-1,-1],"split_conditions":[1.6E1,1.6E1,1E1,1.4E1,1E1,1E1,1.6E1,5E0,3E0,4E0,1.3E1,1.8085664E-2,6E0,-2.4783244E-2,1.5E1,2E0,-2.7150175E-2,7.571528E-2,-2.4652123E-2,9.748397E-3,-2.3904378E-2,9.5995866E-2,2E0,1.2E1,3.4927364E-2,-1.6129397E-2,8.30644E-2,1.8708548E-2,2E0,-1.3811401E-2,1.0594442E-2,1.24307774E-1,3.2627735E-2,9.675157E-3,-2.5657175E-2],"split_indices":[20,61,10,20,44,27,27,10,2,51,51,0,33,0,43,29,0,0,0,0,0,0,5,50,0,0,0,0,27,0,0,0,0,0,0],"split_type":[0,0,0,0,0,0,0,0,0,0,0,0,0,0,0,0,0,0,0,0,0,0,0,0,0,0,0,0,0,0,0,0,0,0,0],"sum_hessian":[1.5247186E2,1.1876425E2,3.3707603E1,1.0624486E2,1.2519392E1,2.1281235E1,1.2426371E1,9.559855E1,1.0646316E1,7.6889043E0,4.830488E0,1.7644162E0,1.9516819E1,9.10104E0,3.3253303E0,1.603367E1,7.956487E1,2.1315339E0,8.514781E0,1.0686918E0,6.620212E0,2.8135E0,2.0169883E0,1.7721485E1,1.7953342E0,1.396289E0,1.9290411E0,1.7284433E0,1.4305227E1,1.0050453E0,1.0119431E0,1.6648674E1,1.0728103E0,1.0749438E0,1.3230283E1],"tree_param":{"num_deleted":"0","num_feature":"64","num_nodes":"35","size_leaf_vector":"1"}},{"base_weights":[2.825445E-3,-3.9517212E-1,1.0840743E0,7.955919E-2,-5.2133757E-1,2.155157E0,-1.6467419E-2,-3.7673944E-1,1.8225967E0,-1.5861985E-1,-2.7165893E-2,2.3710334E0,2.3276486E-1,-2.586773E-2,1.4109211E0,2.1011809E-2,-4.6806112E-1,-1.3933144E-2,1.19911194E-1,-2.2370635E-2,3.1823482E-2,1.2684663E-1,2.042046E-2,3.373903E-2,-1.478296E-2,1.1116333E-1,-1.736906E-2,9.023434E-3,-2.5976038E-2],"categories":[],"categories_nodes":[],"categories_segments":[],"categories_sizes":[],"default_left":[0,0,0,0,0,0,0,0,0,0,0,0,0,0,0,0,0,0,0,0,0,0,0,0,0,0,0,0,0],"id":42,"left_children":[1,3,5,7,9,11,13,15,17,19,-1,21,23,-1,25,-1,27,-1,-1,-1,-1,-1,-1,-1,-1,-1,-1,-1,-1],"loss_changes":[6.589147E1,6.7452145E0,4.859622E1,2.006736E1,6.198559E-1,8.115372E0,1.5966494E1,1.6625662E0,6.9904327E0,1.7708846E0,0E0,5.0420456E0,9.509931E-1,0E0,9.062508E0,0E0,7.126045E-1,0E0,0E0,0E0,0E0,0E0,0E0,0E0,0E0,0E0,0E0,0E0,0E0],"parents":[2147483647,0,0,1,1,2,2,3,3,4,4,5,5,6,6,7,7,8,8,9,9,11,11,12,12,14,14,16,16],"right_children":[2,4,6,8,10,12,14,16,18,20,-1,22,24,-1,26,-1,28,-1,-1,-1,-1,-1,-1,-1,-1,-1,-1,-1,-1],"split_conditions":[3E0,3E0,5E0,2E0,1E0,1E1,1.4E1,1E0,3E0,6E0,-2.7165893E-2,1.5E1,1.3E1,-2.586773E-2,1E1,2.1011809E-2,5E0,-1.3933144E-2,1.19911194E-1,-2.2370635E-2,3.1823482E-2,1.2684663E-1,2.042046E-2,3.373903E-2,-1.478296E-2,1.1116333E-1,-1.736906E-2,9.023434E-3,-2.5976038E-2],"split_indices":[62,37,45,54,45,37,52,13,9,52,0,19,11,0,19,0,3,0,0,0,0,0,0,0,0,0,0,0,0],"split_type":[0,0,0,0,0,0,0,0,0,0,0,0,0,0,0,0,0,0,0,0,0,0,0,0,0,0,0,0,0],"sum_hessian":[1.5112141E2,1.10925354E2,4.019606E1,2.3367668E1,8.7557686E1,1.9885033E1,2.0311028E1,1.9140785E1,4.2268834E0,5.4721923E0,8.2085495E1,1.7667656E1,2.2173758E0,1.5506995E1,4.8040333E0,1.5974988E0,1.7543285E1,1.0198691E0,3.2070146E0,4.3349347E0,1.1372573E0,1.6020807E1,1.6468483E0,1.0565912E0,1.1607847E0,3.1050456E0,1.6989877E0,1.1053917E0,1.6437895E1],"tree_param":{"num_deleted":"0","num_feature":"64","num_nodes":"29","size_leaf_vector":"1"}},{"base_weights":[-6.763319E-2,9.221018E-1,-3.8383538E-1,2.0414743E0,-1.2677905E-1,4.6607822E-2,-5.321287E-1,-1.9400945E-2,2.4247658E0,-4.4157574E-1,5.39566E-1,1.0324843E0,-2.6192838E-2,-2.7178451E-2,7.370548E-3,1.2494506E-1,3.4472432E-2,1.0118208E-2,-2.54293E-2,-2.1652602E-2,1.7853616E0,-2.704742E-1,1.8692034E0,1.072735E-1,3.0993296E-2,-2.1407757E-2,1.0219515E-2,-1.5341383E-2,1.1878228E-1],"categories":[],"categories_nodes":[],"categories_segments":[],"categories_sizes":[],"default_left":[0,0,0,0,0,0,0,0,0,0,0,0,0,0,0,0,0,0,0,0,0,0,0,0,0,0,0,0,0],"id":43,"left_children":[1,3,5,7,9,11,13,-1,15,17,19,21,-1,-1,-1,-1,-1,-1,-1,-1,23,25,27,-1,-1,-1,-1,-1,-1],"loss_changes":[4.789417E1,4.3787704E1,7.4185886E0,1.7696129E1,4.45062E0,1.7750496E1,7.505131E-1,0E0,2.942276E-1,7.151551E-1,9.125482E0,1.31005E1,0E0,0E0,0E0,0E0,0E0,0E0,0E0,0E0,2.0442963E-2,4.9119434E-1,8.621092E0,0E0,0E0,0E0,0E0,0E0,0E0],"parents":[2147483647,0,0,1,1,2,2,3,3,4,4,5,5,6,6,8,8,9,9,10,10,11,11,20,20,21,21,22,22],"right_children":[2,4,6,8,10,12,14,-1,16,18,20,22,-1,-1,-1,-1,-1,-1,-1,-1,24,26,28,-1,-1,-1,-1,-1,-1],"split_conditions":[4E0,3E0,7E0,2E0,9E0,3E0,4E0,-1.9400945E-2,1.4E1,8E0,1.1E1,1E0,-2.6192838E-2,-2.7178451E-2,7.370548E-3,1.2494506E-1,3.4472432E-2,1.0118208E-2,-2.54293E-2,-2.1652602E-2,5E0,1.6E1,1E1,1.072735E-1,3.0993296E-2,-2.1407757E-2,1.0219515E-2,-1.5341383E-2,1.1878228E-1],"split_indices":[18,43,26,10,58,43,1,0,29,36,44,17,0,0,0,0,0,0,0,0,37,53,28,0,0,0,0,0,0],"split_type":[0,0,0,0,0,0,0,0,0,0,0,0,0,0,0,0,0,0,0,0,0,0,0,0,0,0,0,0,0],"sum_hessian":[1.5090692E2,3.607463E1,1.1483229E2,1.6993122E1,1.9081507E1,2.9599907E1,8.523238E1,2.313932E0,1.467919E1,1.3188347E1,5.893161E0,1.055275E1,1.9047157E1,8.4018E1,1.214391E0,1.365577E1,1.0234193E0,1.0526763E0,1.213567E1,3.6757877E0,2.217373E0,4.3912845E0,6.1614656E0,1.051626E0,1.165747E0,3.3704686E0,1.0208158E0,1.2376785E0,4.923787E0],"tree_param":{"num_deleted":"0","num_feature":"64","num_nodes":"29","size_leaf_vector":"1"}},{"base_weights":[1.0701129E-2,1.099006E0,-4.4472075E-1,1.8069277E0,-3.3240074E-1,2.627E-1,-5.050007E-1,2.2816525E0,-2.3029348E-2,-2.543847E-2,2.8494027E-1,1.0040939E-1,-2.3725806E-2,-1.5728565E-1,-5.231973E-1,-1.9323224E-2,2.5618236E0,-1.71665E-2,4.0765733E-2,3.006944E-2,-2.222701E-2,-3.9786926E-1,-2.7144173E-2,1.3186528E-1,3.0370085E-2,2.4567029E-2,-2.570771E-2],"categories":[],"categories_nodes":[],"categories_segments":[],"categories_sizes":[],"default_left":[0,0,0,0,0,0,0,0,0,0,0,0,0,0,0,0,0,0,0,0,0,0,0,0,0,0,0],"id":44,"left_children":[1,3,5,7,9,11,13,15,-1,-1,17,-1,-1,19,21,-1,23,-1,-1,-1,-1,